2.303932836421062530e+05
5.453805330816346395e+04
-5.673560562133828171e+03
-1.575580192444816057e+05
1.088958810151722282e+05
-1.279912625027073955e+05
8.121694848892545451e+03
6.927342234276693489e+04
1.284650774486280425e+05
4.781674377918242681e+04
1.592342693545955117e+05
-4.623977724522448625e+03
-5.304190014493880881e+03
-5.296363817689777352e+04
8.752990618508945045e+04
2.718048559522117139e+05
2.716891291798657039e+05
9.180159807154677765e+03
-9.349442332909382822e+04
1.344642755478293402e+05
5.188006680437141040e+04
1.183296892044086126e+05
-7.330721132063394180e+04
4.395661535506926157e+03
1.512332453602408350e+05
2.704534352105073776e+04
2.725643047158638728e+04
-1.366489971995518135e+05
-2.023646112925595389e+03
4.485548461119807325e+04
1.070295123883400520e+05
1.233588393480395171e+05
1.181771719163464440e+05
1.229046080777635798e+05
1.602943462950874236e+05
-6.364366478085998824e+04
-6.733059263107420702e+04
-4.851218351991495729e+04
3.010056924819939013e+04
-1.220067076456084760e+05
1.207340704184759525e+05
2.671514614686270215e+04
1.434325887265737110e+05
7.964566249176653218e+04
3.552253970070990908e+04
-7.896084886219998589e+04
1.640615071593881657e+04
1.297713799370237757e+04
-3.690422904274686880e+04
7.411301453833455162e+04
6.334152385676008271e+04
-3.444477520843058301e+04
-5.754191827863837534e+04
-1.258239085292236850e+05
1.460060975726495672e+05
2.442025610812723171e+05
1.327490436014594452e+05
-1.072405605681554152e+05
5.227594604492218423e+03
8.934422511987223697e+04
5.169359924524711096e+04
1.504496007848670706e+04
-1.199149753736397543e+03
2.525770430131397370e+04
-7.318334521363108070e+04
-7.086028941293781099e+04
1.508074368712722789e+05
1.078687265394427814e+05
-1.159276902989186783e+05
-1.380945264678647072e+04
-2.037561830910301069e+04
6.668257465174359095e+04
1.493325540527879493e+05
-1.003524308824753680e+05
-1.585461862983431784e+05
1.656982380663935037e+05
-1.399210496373043134e+04
6.698412489057079074e+04
8.029063004888963769e+04
7.263361452223762171e+04
3.298757959088563803e+04
-1.147251183271945047e+04
1.890258945452220723e+04
1.309649184788161801e+05
1.188606150031546567e+05
1.339124846719135530e+05
1.174260107707651478e+05
-1.680304033322761461e+04
8.079388428355811629e+04
-4.954147729589372466e+04
1.109928080745132756e+05
9.212041869556371239e+04
2.502780191609290487e+05
1.355568048053940583e+05
1.072731719833453390e+05
1.591459044112130068e+05
8.604031062750707497e+04
4.325675013891156414e+04
9.662815530812142242e+04
-4.163345509655075875e+04
8.092648369126299804e+04
2.170728246389594278e+04
3.781450529861637915e+04
-5.132139587402340840e+04
1.080177243101209460e+05
1.399823985273192811e+05
1.070304998797194712e+05
-7.211762367806787370e+04
1.492117834082385234e+05
1.892377771497002977e+05
1.353419071939453424e+05
1.001861689243842848e+05
-3.202529968261718386e+04
6.558399800035482622e+04
-7.570110015090819797e+04
1.605641683486694237e+05
-8.691351434136177704e+04
-1.525068605863132143e+04
1.559002387901351321e+05
2.638941486728980090e+05
1.310313858991731540e+05
1.381920561561289360e+05
-1.018084254224099714e+05
2.346341688855943721e+04
8.011005662797810510e+04
-3.141233254193358516e+04
-1.145685263739689544e+05
1.001885795253672695e+05
1.257748436116027588e+05
1.157467904174894793e+05
1.625626588099217952e+04
3.347010093357255391e+04
4.450523970827692392e+04
2.009863604303499960e+04
-3.065850377297013620e+04
-5.036982515587474336e+04
-1.415188100369941094e+05
2.169723465974559658e+05
-3.750593469293273665e+04
-2.639692876994533435e+03
1.016209587688756874e+05
4.191140983964752377e+04
1.096989700735969673e+05
-6.299088189729822625e+04
3.232204702284807718e+04
1.358600081815063313e+05
-1.133180183437603555e+05
4.668960204859363148e+04
8.353214537062846648e+04
1.141778907870724943e+05
7.941515967581002042e+04
-1.167528986428913195e+05
-3.837243683484134090e+04
