1.688916815985624853e+05
3.997956619532451441e+04
-4.159049989836454188e+03
-1.154991951105468179e+05
7.982701653915829957e+04
-9.382504217260389123e+04
5.953674858814993058e+03
5.078144902753200586e+04
9.417237609535543015e+04
3.505245525290031946e+04
1.167279839684576582e+05
-3.389644703280681370e+03
-3.888279887784232415e+03
-3.882542830184872582e+04
6.416451387848734157e+04
1.992487735004203569e+05
1.991639390431019419e+05
6.729591256585315932e+03
-6.853685197120343219e+04
9.857013734603047487e+04
3.803110744168709789e+04
8.674254681752124452e+04
-5.373845104128852836e+04
3.222275652892399648e+03
1.108627678668627341e+05
1.982581034687004285e+04
1.998054936302502756e+04
-1.001716654277144407e+05
-1.483450340085849120e+03
3.288167999146979128e+04
7.845885974706125853e+04
9.042920647765668400e+04
8.663074277164578962e+04
9.009622852856545069e+04
1.175050820429903397e+05
-4.665450918539794657e+04
-4.935724181159090949e+04
-3.556225304477201280e+04
2.206546856330888113e+04
-8.943801527035968320e+04
8.850509813858577400e+04
1.958375646012269499e+04
1.051444326983791689e+05
5.838490453203317884e+04
2.604008836483352570e+04
-5.788289629789223545e+04
1.202666301366073094e+04
9.512997182233990316e+03
-2.705294704167726741e+04
5.432915168292018643e+04
4.643302230893912929e+04
-2.525002428574762598e+04
-4.218157398886162264e+04
-9.223624560955110064e+04
1.070309644138510630e+05
1.790146854096669122e+05
9.731277253411192214e+04
-7.861357034202260547e+04
3.832130995796540446e+03
6.549451521796881570e+04
3.789441587183660158e+04
1.102883107992855003e+04
-8.790465381431695278e+02
1.851536679079013265e+04
-5.364764997810624482e+04
-5.194471491670121759e+04
1.105506254701575090e+05
7.907405254678387428e+04
-8.498174186725071922e+04
-1.012313224848359278e+04
-1.493651371009827562e+04
4.888220692990903626e+04
1.094694505529165181e+05
-7.356417051884606190e+04
-1.162235790543350013e+05
1.214664491193427239e+05
-1.025702702383870019e+04
4.910326079969581042e+04
5.885770327675807494e+04
5.324466539701051806e+04
2.418181511586780834e+04
-8.410018664421309950e+03
1.385669785626535304e+04
9.600490501565774321e+04
8.713174631820435752e+04
9.816564252981456229e+04
8.608009794805040292e+04
-1.231760619487361510e+04
5.922661791099180118e+04
-3.631678526869748021e+04
8.136418607658191468e+04
6.752962663280515699e+04
1.834683496629560832e+05
9.937102485711086774e+04
7.863747640674663126e+04
1.166632073237293953e+05
6.307255366747397784e+04
3.170971460608355846e+04
7.083405983790209575e+04
-3.051974489385512425e+04
5.932382099170779111e+04
1.591270101413820157e+04
2.772023249871277585e+04
-3.762156914527885237e+04
7.918327658164488093e+04
1.026152425441554224e+05
7.845958363569641369e+04
-5.286641408697382576e+04
1.093809186438120960e+05
1.387223008394408389e+05
9.921349240479574655e+04
7.344229083015056676e+04
-2.347640795595931559e+04
4.807688632730754762e+04
-5.549331083456752822e+04
1.177028773069903255e+05
-6.371266279426663823e+04
-1.117964019287608789e+04
1.142839455849104561e+05
1.934497648057366605e+05
9.605362950197169266e+04
1.013028174207858538e+05
-7.463149922895662894e+04
1.720004972242464646e+04
5.872533245314875239e+04
-2.302706737832546060e+04
-8.398539563170059409e+04
7.344405794092414726e+04
9.220027817025118566e+04
8.484913172908782144e+04
1.191678870907995588e+04
2.453553133400274601e+04
3.262493009976051690e+04
1.473346959375203369e+04
-2.247446703158357559e+04
-3.692401244480776950e+04
-1.037415215718871768e+05
1.590533538909693889e+05
-2.749403229156290035e+04
-1.935048460839125255e+03
7.449407526477440842e+04
3.072350189244393187e+04
8.041572754412610084e+04
-4.617598135168403678e+04
2.369394102163380740e+04
9.959329057271002966e+04
-8.306870048878769740e+04
3.422619478527858882e+04
6.123392260468960740e+04
8.369903701863571769e+04
5.821593255687537749e+04
-8.558666759546419780e+04
-2.812922877620971121e+04
