-1.022047705225231695e+00
-3.850962685071833425e-02
1.915791359078229839e+00
-1.067847364453024861e+00
4.568744390701040992e+00
-4.272798607393980319e+00
-5.151875363722083767e-01
-3.786092186233368517e-01
-7.959307688849965867e-01
2.292579602740663636e-01
-4.045709069907970634e-01
-6.732950897918339450e-01
7.095077331760643036e-01
7.900003216518278193e-02
-1.207070971367828705e+00
3.744381470327542871e+00
-1.069112228595186842e+00
6.844791321172412069e-01
8.615013193596341434e-01
1.105588904677295981e+00
6.007110644053221815e-01
1.921278986736273398e-01
1.510329383232997369e+00
3.624786158480688414e-01
1.146507254418931199e+00
2.084148079698551648e+00
-2.146787779513132932e+00
-1.639083683001063552e+00
-1.476627183551068923e+00
-1.837099061404575462e+00
-2.467788065476397841e-02
-8.688374891764151231e-01
7.046340063496706607e-01
-5.224967516314884541e-01
6.899756608553304638e-01
1.165049619398861536e+00
1.662470031471896537e-01
-1.763947173157091708e+00
6.283193350154981927e-01
-2.355770090965874974e+00
-5.413397063407681120e-01
1.293957155100851519e+00
-3.507111120191248044e-01
-2.345442330785951324e+00
-1.661045674377934489e+00
7.392688000129650217e-01
-8.797874883193657070e-01
2.762577929800902332e-01
1.766207654002773131e+00
-1.362820745951490498e+00
8.576893989374798632e-01
-7.516954301013811790e-01
-1.616637728311942357e-01
-8.231236291171996067e-01
-6.587987258183012340e-01
-1.448414883158739563e+00
-2.442626861728863785e-02
-2.375113779101013789e-01
-1.109401673508242370e-02
1.240211772321460959e+00
-1.276029384323027482e+00
2.222345539155818450e+00
1.331734429527038799e+00
-2.198495551564180195e-01
2.018626256006398556e+00
2.289273645152300585e+00
2.682168493618756200e-01
5.077155468643526071e-01
-2.134043187412536735e+00
-4.541252211301395336e-01
8.637119698746080765e-01
7.285107811170113967e-01
-7.829615104165198458e-01
-5.414575878982829105e-01
-8.407143592783439257e-01
4.602518646853493434e-01
-6.479960463350240563e-01
2.406745503283782839e-01
-4.667565385107184994e+00
-1.831557515444145023e+00
-8.401994925501825584e-01
-8.071411323075536881e-01
1.611948314576941321e+00
-4.269006386571064127e+00
1.144075158787307478e+00
-4.339652734390850863e-01
-8.581252647020489732e-01
3.264145860959492551e-01
4.260424041011083296e-01
2.578059970159109593e+00
-5.669210203078350885e-02
-1.775024051323850660e+00
-3.261376849757264829e-01
4.651390159805551816e-01
-7.086160770267131426e-01
1.373425865168978577e+00
-9.849168710554527806e-01
1.049595702562981847e+00
-1.873882697448096657e+00
-1.459186513085085846e+00
-3.891314661741532288e-01
-1.684479364591222605e+00
6.567672549712250119e-01
1.592666330526200991e+00
5.130170582935866808e-01
-3.270161447279234523e-01
-2.942016092757866463e+00
3.109293644791394362e-01
1.058297281799589207e-01
-2.868401716744760632e-01
-3.626523357426828742e+00
8.346567319022644149e-01
9.826199189758748620e-01
1.638168803263951423e+00
-7.382281408296134662e-02
8.587315967480936563e-02
-8.782127825976221436e-01
-7.872628484994442788e-01
-1.104516677773711208e+00
-2.747673766318972532e+00
-1.438807729368209998e+00
4.539622296867212303e-01
1.218593336787846260e-01
-2.216554723438744379e+00
2.749981794286557424e+00
1.573594969451374281e-01
1.296255052899962568e+00
1.788463419495197049e-01
5.735057162454020308e-01
5.065371125832666965e-02
1.384863370903939295e+00
-1.061784188987358046e+00
1.581969624307732358e+00
-8.467941252092836546e-01
6.285676780603889346e-01
1.435491176214575004e-01
7.151378941941890943e+00
-1.347684947627966201e-01
-2.299389558692243596e-01
4.758840469422466191e-01
-3.891090673611802830e-01
9.375539285691538716e-01
2.051539130384062715e-02
-9.794912989897079925e-01
1.703994291152537421e+00
-9.824202741631765656e-01
-4.909771290444066572e-01
-1.051245863764421307e+00
2.196927652235275641e+00
-3.212967252075474178e+00
-1.305048713726590481e+00
-4.751878639927578640e-02
-7.926373726699219580e-01
-3.368096549316361710e-01
-1.080346723805025944e+00
-1.156989189502729110e+00
-3.000491649505754310e-02
-3.041578392823763632e+00
-4.892176363624822222e-01
2.054502485416702384e-01
1.452866943824088652e+00
3.175097340459953621e-01
1.694751637684743129e+00
-9.982213454759765181e-01
2.213835699121067258e+00
-7.705947172606530948e-02
-2.389206018868835102e+00
-1.033792279516663859e+00
-4.245012792062933249e-01
-7.166768346492242703e-01
-1.751967196833376317e+00
2.332442482023422414e-01
-1.153592263612954305e+00
