-1.206767004800775700e+00
-3.926084778547153653e-01
1.795208343477903368e+00
-1.074886851125042453e+00
5.194563488743084712e+00
-4.935006045978944655e+00
-2.472316750990327661e-01
-5.975749883442635912e-01
-1.154825426591369331e+00
2.339599712688980593e-01
-2.203712428377492816e-01
-7.569516871560004745e-01
7.043765167279997241e-01
3.699250212200720367e-01
-1.231335847715861354e+00
4.303821617160901170e+00
-1.626086398391618060e+00
8.147596775199725805e-01
1.173458114763372473e+00
1.106130892991915582e+00
7.667319337446056871e-01
2.443494689400520781e-01
1.523014440968584848e+00
-1.035079207290487413e-01
1.671821541618709661e+00
2.454230308413812178e+00
-2.744457991275391251e+00
-1.470552477840482153e+00
-1.934926463249330597e+00
-2.622137062405878183e+00
1.132917670586529313e-01
-7.966183514634448404e-01
4.062812918383349459e-01
-4.482969894045610859e-01
1.075520323509831622e+00
1.469565003987833629e+00
-5.139555756767300032e-02
-2.480987707125524189e+00
6.584296104218109180e-01
-2.863732634333266525e+00
-4.060192125075402503e-01
1.379467416338195696e+00
-3.762594968699838338e-01
-2.676982621285678210e+00
-1.912809034721519641e+00
7.483681466903173707e-01
-1.310442535353496085e+00
-1.560891604739698679e-01
2.334807196832247023e+00
-1.384965488980446580e+00
9.832003123852852688e-01
-2.643187889638938248e-01
1.845460271136153962e-02
-1.275540824748841340e+00
-5.614890131206736745e-01
-1.612701297091437169e+00
-3.440319312958628473e-03
-1.913794125276818692e-02
-1.139343774728756586e-01
1.494502606883892248e+00
-1.068692324964041429e+00
2.434328732704412523e+00
8.397592804461755378e-01
-1.686971734781988752e-01
2.389782978198928376e+00
2.872057692352148806e+00
2.201228547371442690e-01
5.151209444267739190e-01
-2.478033648254007737e+00
-1.585909295923774442e-01
1.356776627880486918e+00
9.995226052017810447e-01
-6.007350268643933955e-01
-3.431429205196842580e-02
-7.829853889970931347e-01
3.637766440802515100e-01
-4.714215563348259641e-01
1.778433339421328363e-01
-5.226498676721837988e+00
-2.201216366839468197e+00
-1.137266024566883305e+00
-1.013872448159867767e+00
1.865549952063654926e+00
-6.260439969292507456e+00
7.210877628064664702e-01
-3.224406812676671730e-01
-1.182690640083148725e+00
3.511715084744622128e-01
1.192737440512953162e+00
3.002440052327901121e+00
3.424054221836012601e-01
-1.975461652956906455e+00
-5.123712253048504639e-01
7.626188464943843837e-01
-1.203446540827923350e+00
1.779092863618965126e+00
-8.970499649999554848e-01
9.362985726248449492e-01
-2.083887516651064420e+00
-1.933634144219217976e+00
-1.030829718188623012e+00
-2.027087277838460100e+00
5.091835926571672832e-01
1.871063168459305093e+00
4.936610191633044598e-01
-7.288867715406558423e-01
-3.008371930197732969e+00
7.366431581592985944e-02
-6.835093192281593844e-03
-6.355453915747626414e-01
-4.088959090997771106e+00
1.261339955035155169e+00
1.382319684609838450e+00
1.373596308649576159e+00
7.213065154976769366e-02
-7.466976810751788096e-02
-1.036392802567349669e+00
-9.390869987644435701e-01
-1.103970691170045093e+00
-2.865555921330854794e+00
-1.309619991268133887e+00
-2.311660500367414550e-01
9.825798354044412708e-02
-2.591430338218809304e+00
3.333088504534791774e+00
8.311965487724515267e-01
1.430773932646085322e+00
1.616032834567046050e-01
5.340242927847491661e-01
-1.457791628868076450e-01
1.915477572318177391e+00
-1.527208407597419937e+00
2.113593863238818926e+00
-9.920095445527835620e-01
5.250041043254253248e-01
3.176451743679599704e-01
8.687835943658736682e+00
-4.050424265824182357e-01
-2.987755123478043617e-01
6.259801420506466707e-01
8.207247604466746949e-02
1.160092478624647594e+00
2.308221479084954786e-01
-7.671488153101440055e-01
2.010778220918585824e+00
-7.920568786742063772e-01
-5.200564098797840762e-01
-9.262405716054653571e-01
2.845321305204659978e+00
-4.381224321422138246e+00
-1.164610855993001959e+00
1.885925530981968634e-01
-9.187998186250133648e-01
-2.681323098796281057e-01
-9.487385752600626665e-01
-1.331976744004891522e+00
6.302503497274825062e-02
-3.952484112353860102e+00
-7.434052609607022521e-01
3.615867528485335880e-01
1.234175251190176681e+00
6.446496846559355287e-01
1.745127068138480952e+00
-1.423314930119163213e+00
2.235094044591594109e+00
-1.766548952235983405e-01
-2.896372596786012998e+00
-1.575650086747665490e+00
-4.649830116765751864e-01
-5.852485451059652455e-01
-2.270404905737712475e+00
7.342747228068389198e-01
-1.339895017977963843e+00
