9.278398085623416058e-01
-8.286503429700121659e-01
5.758642670379116035e-01
6.506181810685023326e-01
-1.466211529626669341e+00
1.033164361244893303e+00
7.103425022675152745e-02
2.474867934642106526e+00
2.795204672292148196e+00
2.126906017723516618e-01
-7.340727873109231805e-01
-3.914735599942728017e-01
-6.280080973890038720e-01
2.340683371276324198e+00
2.184716261858521413e+00
6.324758391075777642e-01
-4.367408143368659346e+00
-1.452891271111913962e+00
8.588382805572204459e-01
2.603085491878844415e+00
2.358549636352728074e-01
-8.793881941798097346e-01
5.594170472580292097e-01
-2.692425537037822281e+00
1.292950116161206475e+00
5.919613511205871204e-01
2.670815319266941490e-01
1.793564812482265625e+00
-4.033482245300440638e+00
8.699543774186953016e-01
1.989724309381555312e+00
-7.754560743701185421e-01
1.299922204661020819e+00
5.889543876446675874e+00
-2.235115464618541381e+00
-2.939274044765278759e+00
-2.663823439714056107e+00
-5.458854817957565775e-01
-1.965779676874973569e-01
1.507935629694884483e+00
-5.567703933027532415e-01
7.833868302482116519e-03
1.304655158138401383e+00
9.896332891295754886e-01
1.338909390038669711e+00
-1.701393615515791602e+00
-6.717350174602121360e-02
3.680528300712613277e-01
-2.163886975891477160e+00
-5.998833242638343943e-01
-2.454216365137499078e+00
-9.822145740900760646e-01
6.169555586986842366e-01
-8.302375546096966152e-01
3.527019654510347380e+00
-1.673778417060404422e+00
2.487845711031155371e+00
-3.997878765045585481e-01
-4.113491456483189701e+00
2.022824205192936375e+00
1.698272170742756160e+00
1.843877942412772919e+00
-9.141111247852895527e-01
6.811750436913961426e-01
-2.001791183877649205e-02
4.687843085013835842e-01
1.792235795477024940e+00
-1.052430123026216968e+00
1.551574391689530819e-01
2.830334902204483249e-01
9.005165880678029922e-01
-3.136955946848326571e-01
-3.118952643398036351e+00
4.436829290521505875e+00
4.897491988132961716e+00
9.400705385017831262e-01
3.877905980899448712e-02
-1.423455781314624247e-01
2.766681339302749620e+00
9.512641924970004492e-01
-2.118153262554555383e+00
3.290098727953694624e+00
-2.075333073385157157e+00
-1.928884951034820272e+00
