2.557998930324852926e-01
-7.021497318659390974e-01
6.541043433840261212e-01
5.008565571829535212e-01
-8.695713805530809193e-01
9.525485588588323838e-01
3.395180521240973581e-01
1.459630360921036152e+00
2.418512100157999001e+00
7.332287304168323416e-01
-6.976882407610401904e-01
1.243541178962836169e-01
-6.315716096707868488e-01
2.026860471878704217e+00
1.832688658867182907e+00
1.022240766697760650e-01
-3.008537849863344604e+00
-9.772274213731468873e-01
3.284524675819219808e-01
1.054759376021222828e+00
8.432070602235826051e-01
-2.589398166326499773e-01
1.220746450526308813e+00
-2.093470529222429377e+00
4.230008581496428333e-01
8.827215158902892433e-01
-7.771649304007449688e-02
2.086690481036687750e+00
-2.092669469166169360e+00
3.674229570983824633e-01
2.115476082442897532e+00
-2.970986649832573212e-01
1.581475068759466529e+00
3.961444884823561274e+00
-1.025068916679885644e+00
-1.469015448482687836e+00
-1.835821580480627935e+00
-2.621760004087563267e-01
2.907898000308489772e-02
9.383814373210330739e-01
-1.079427966207221701e+00
-1.112979728520602229e-02
6.696612819872512778e-01
8.211202716065312268e-01
6.982631582152613037e-01
-1.120705715531058688e+00
7.903649665983738526e-01
2.642069683969871519e-01
-1.548120367688645693e+00
-3.802956833266516457e-01
-1.721077773609295702e+00
-7.707401675850449330e-01
5.239255212526621186e-01
-4.745476537934186778e-01
2.261302749479920493e+00
-1.100955695396169665e+00
1.176329456863222767e+00
-9.321169473194440558e-02
-3.088778004089803630e+00
1.275834797445424051e+00
1.846341706172826447e+00
1.182133736990465867e+00
-4.554198144527127345e-01
1.027660280646586433e+00
-3.519891389709392526e-02
1.322793388918789559e-01
1.362556087733951315e+00
-3.674760139532136649e-01
3.001342220386515880e-01
3.056148442182108904e-01
6.384580105607446932e-01
-3.884277515545172532e-01
-2.212743592276860571e+00
3.212462760044619170e+00
2.900020348929907232e+00
2.589048773473228149e-01
2.999718206336392246e-02
1.413658987024266900e-01
2.145944943986727083e+00
5.572708141632236600e-01
-9.730252643767655085e-01
1.631189295335706557e+00
-1.268201815938403643e+00
-1.425486617350631535e+00
