-4.767430763994537847e+04
1.319954349041839487e+04
-5.289440137966182192e+03
-3.766132709907804383e+04
5.845339992507197894e+04
-5.294954055583559239e+03
-1.935370685840980150e+04
3.816063115794916666e+04
-3.172562669634158010e+04
-1.642056453787242208e+04
-2.326915445682761492e+04
-3.980371001315533067e+04
5.260305492135930763e+03
-5.452260130497618957e+04
8.992386747684197326e+04
-5.435168174971752887e+04
1.253307174801010406e+05
3.160084710673354493e+04
8.858236108906456502e+04
-1.052848509962050957e+04
-2.634916610586500610e+04
-5.382493732157905470e+03
8.407524770929626538e+04
-1.814525881463388578e+04
1.082523579468804928e+04
-3.765660371450986713e+04
-2.515852723216184677e+04
5.739784019193569293e+03
1.403419590634603446e+04
1.410789850617833872e+04
-4.549342582677758037e+04
4.739898052440001629e+04
3.412489023620799708e+04
1.065284634711384933e+04
-5.783538042816286907e+04
-2.166849399955013268e+03
2.335119569707500887e+03
-3.626212962577704457e+04
-9.021385089171894651e+04
-1.941072173792746617e+04
2.566002821790186135e+04
-3.957360454242140258e+04
7.500999095062416745e+04
2.473054148747459112e+04
-6.499666685884280014e+04
-2.927003925261350741e+04
2.202206098051477966e+04
-1.015561621665999992e+05
1.036697303342453379e+05
4.348391882987230929e+04
1.273219371538357518e+04
-2.434489295608874454e+04
-1.076967187552263022e+04
3.276496367292314972e+03
2.705377440458383353e+04
9.242747411802240822e+04
-9.893676115661963195e+03
5.049320658529194043e+04
1.606501656671301589e+03
-5.892930134738994093e+04
-4.923015393910796411e+04
1.076717314267990296e+05
-7.414837746559729567e+04
1.768679901972386142e+04
-7.691717479458275193e+04
4.611156566287051101e+04
5.596387955744279316e+04
-2.803035665476088070e+03
-7.589267906518481323e+04
-1.449874604178020491e+04
2.215056207220044598e+04
-2.927170850972794869e+04
-6.857796125336366822e+04
-1.025514221895311348e+05
-6.759743187149747973e+04
1.058943507940564159e+05
1.228524782503828901e+05
-8.649520522787590744e+04
1.580499878419252636e+05
5.155399640405565151e+03
-2.826002441696743699e+04
1.345029380450123863e+05
-3.186309560731237434e+04
-1.734760729232215817e+04
4.606471873139560921e+04
7.483740519268412027e+04
-3.194991643942123119e+04
-2.340808442111411932e+04
1.451517187340444434e+04
-1.240897731159370596e+04
-8.444185681886605744e+04
1.083263109109166107e+05
2.490749253353818131e+04
-3.497123516597114212e+04
4.107326820824269817e+04
-6.897613862170599168e+04
-8.710291972937945684e+04
5.316138344600223354e+04
2.002056876130202727e+05
-1.316045011298121244e+05
-3.980110801608392649e+04
2.151108854250422155e+03
4.394429648546714452e+04
9.236721708742156625e+04
1.400661830366832328e+04
1.319506586585284094e+04
-4.673980451081175124e+04
6.970628999651251070e+04
-6.172192476916435407e+04
-8.420689327024195518e+04
3.266512543022137379e+03
-7.776138451436272589e+04
-3.402716657788736484e+04
-1.165596778740898444e+05
-2.867709128510556911e+04
5.401505627219888993e+04
-9.840400891169448732e+04
-1.185298167651603144e+05
1.400040407408271494e+04
9.211220339798455825e+03
2.693789091965076659e+04
7.070126545071875444e+04
6.089936033073918225e+04
2.967623200250056834e+04
3.600050214818150562e+04
6.508056138491419915e+02
-8.526930239520913165e+04
-9.753703662801600876e+04
1.568124908120119289e+04
2.170790177635975124e+04
9.760865304959191417e+04
1.751543753690676022e+04
-7.113957455086571281e+04
2.439648751317111601e+04
-3.963266799047546556e+02
1.209526697352660703e+05
1.120334032691014727e+03
-5.734864744979784518e+03
1.792561903193450780e+04
-5.063386028578122205e+04
-1.445328620902942494e+05
-5.085095767206560413e+04
-1.820855955447536689e+04
-4.896962874970481789e+04
-4.338803695369428897e+04
5.725834959452783369e+04
-3.529097087934254523e+04
3.234446592615115514e+04
-1.051933921191297268e+05
-1.195586669986499328e+04
2.797147048749464375e+04
-4.280912628762568056e+04
5.524105164113990759e+04
8.298591509565045271e+03
3.464926059308508411e+04
-1.425120318707248225e+04
