-5.719218873764063028e+04
1.583475083174950669e+04
-6.345444195471472995e+03
-4.518017846903672034e+04
7.012326022896246286e+04
-6.352058932688838468e+03
-2.321755490984236530e+04
4.577916549970522465e+04
-3.805945213804842206e+04
-1.969882883924119960e+04
-2.791469744062180689e+04
-4.775027490117744310e+04
6.310492997528430351e+03
-6.540770193983058562e+04
1.078766122750144714e+05
-6.520265935091373103e+04
1.503522212190447899e+05
3.790976107397744636e+04
1.062672824216694426e+05
-1.263043212890642826e+04
-3.160961439413575499e+04
-6.457075365071810666e+03
1.008603516902479023e+05
-2.176784767714924237e+04
1.298642726759835932e+04
-4.517451208990969462e+04
-3.018127182233621716e+04
6.885696451393546340e+03
1.683603644794712818e+04
1.692445331667011851e+04
-5.457590733896389429e+04
5.686189426381678641e+04
4.093771382649740553e+04
1.277962133144304062e+04
-6.938185695620370097e+04
-2.599447500826149735e+03
2.801311770782186159e+03
-4.350163986122675124e+04
-1.082244890878184087e+05
-2.328595245794836592e+04
3.078289438275545763e+04
-4.747423029427572328e+04
8.998527240408890066e+04
2.966784136683728502e+04
-7.797284999675236759e+04
-3.511362182617201324e+04
2.641862945344868422e+04
-1.218312227619228506e+05
1.243667517614582321e+05
5.216521468025579088e+04
1.527409756034494785e+04
-2.920520048781300648e+04
-1.291977035511825852e+04
3.930628632336304236e+03
3.245489338823848084e+04
1.108800485205618897e+05
-1.186888745169561298e+04
6.057386344872786867e+04
1.927229791140032830e+03
-7.069417243121794309e+04
-5.905865014197811979e+04
1.291677276569485402e+05
-8.895164310784988629e+04
2.121785921549926206e+04
-9.227321372428239556e+04
5.531745497588134458e+04
6.713672249448813091e+04
-3.362644425357689670e+03
-9.104418374949703866e+04
-1.739333114899468274e+04
2.657278499450413437e+04
-3.511562434016044426e+04
-8.226912770010967506e+04
-1.230251803019967629e+05
-8.109284168261746527e+04
1.270355039574633120e+05
1.473792168319959892e+05
-1.037634387824600999e+05
1.896036918439365108e+05
6.184643340367914789e+03
-3.390196376614619658e+04
1.613556189747815079e+05
-3.822436586812663882e+04
-2.081094995447107794e+04
5.526125534385045466e+04
8.977823096541516134e+04
-3.832851994318598736e+04
-2.808136391428728530e+04
1.741303629646138870e+04
-1.488635299762860086e+04
-1.013001520444724010e+05
1.299529898925779999e+05
2.988011959644937815e+04
-4.195302629470833926e+04
4.927329254949277674e+04
-8.274679872101443470e+04
-1.044924797311214061e+05
6.377472534179702052e+04
2.401755167330227559e+05
-1.578785270293623616e+05
-4.774715343145997031e+04
2.580564452380715466e+03
5.271750389163164800e+04
1.108077615459314402e+05
1.680295314720608440e+04
1.582937927709178439e+04
-5.607111782999439311e+04
8.362272030859893130e+04
-7.404432587272179080e+04
-1.010182794744318235e+05
3.918651599207724757e+03
-9.328596470102362218e+04
-4.082048024330580665e+04
-1.398300977230760909e+05
-3.440229545882486127e+04
6.479882867570925737e+04
-1.180497615764547518e+05
-1.421935626767453214e+05
1.679549828506096310e+04
1.105018359482894630e+04
3.231587448120119370e+04
8.481633646755923110e+04
7.305754152408325172e+04
3.560090845004600124e+04
4.318778007346435334e+04
7.807349354683569800e+02
-1.022927920200699300e+05
-1.170097036305077636e+05
1.881191361744212918e+04
2.604175030433968641e+04
1.170956178283693007e+05
2.101228647091626772e+04
-8.534215127268145443e+04
2.926709557958406367e+04
-4.754508539497373931e+02
1.451001232794995012e+05
1.344001803461495911e+03
-6.879795074462914272e+03
2.150435816826512018e+04
-6.074259779188356333e+04
-1.733879554138184176e+05
-6.100303733060949162e+04
-2.184378601877313122e+04
-5.874611270743826753e+04
-5.205019057963723026e+04
6.868962548020748363e+04
-4.233659526865963562e+04
3.880183879831897502e+04
-1.261946032120038581e+05
-1.434278165054723831e+04
3.355580182667906774e+04
-5.135570397427145508e+04
6.626958644866943359e+04
9.955354054768802598e+03
4.156677148676670186e+04
-1.709636789209700146e+04
