4.676420275187011200e+00
-8.803043826503700320e-01
1.605970370570392047e+00
2.529476632021281812e+00
2.572485937633224751e+00
1.133318948254571801e+00
-2.309784552067237762e-01
-9.745931218897415649e-01
8.911607327013031377e-01
-6.460450512120237132e-01
2.815476393890122164e+00
-1.155271983448078021e+00
-2.277527514289309885e+00
-2.313974556971434282e+00
-6.734554440478125459e-01
4.194305370665915689e+00
5.155395240996399231e+00
-2.483489912459012849e+00
-2.314008657753882758e+00
-8.949766976337134583e-01
1.529183489130861995e+00
-4.570946057299890342e+00
5.900855735670427205e-01
1.126295842482659904e+00
-8.144683991776318077e-01
-1.112977002473902743e+00
7.018608855390180423e-01
-7.710966396598211148e+00
2.844762007828952610e-01
-1.925050699553926048e+00
-1.295526246921593128e+00
-3.041579116897198176e+00
5.034539658704483500e+00
-3.368673124585625622e+00
1.570046840779094843e+00
-2.556947848872774820e+00
-9.044260381204262123e-01
-3.124150818344200164e-01
-2.924763961340575147e+00
1.964327275726543975e-01
4.060346990805846268e+00
-1.041126049426470468e+00
5.331135047052883991e+00
-1.204097523407492210e+00
4.969786264732158898e-01
1.256472110128834974e+00
-2.675178751666351218e+00
-2.357763036218349484e+00
-5.429237600428837851e-01
3.537360486501732737e+00
3.019270674976021418e+00
1.658721503999908586e+00
-1.868868721980277758e+00
4.987098647422508191e-01
4.184342092844105743e+00
4.521948720774068065e+00
-4.747500209368542556e-01
-2.542585498115675691e+00
-3.377171517986386817e+00
-3.537892854668616138e+00
4.274088296834025691e+00
-7.069162943509152974e-01
-7.546133234771050802e-01
-1.153393568038082684e+00
1.065811565028594865e+00
1.221139978974351115e+00
3.612874719656926636e-01
2.932258991807638271e+00
-4.710216829537305916e-01
1.132782962749607769e-01
-3.004611111847627081e-01
-1.264865721820957356e+00
1.195776010612169316e+00
-1.150397165103810959e+00
-9.680953499603904833e-01
4.595160012792716131e+00
-7.887397812433805111e-01
-1.627321573922713149e+00
-3.094916420886445252e+00
-2.497610205913094461e+00
3.959682526475754027e-01
9.894676347490194424e-01
-8.714980984904732608e+00
3.192021580484300181e+00
2.273800184555838655e-01
-3.421429286332832387e+00
-1.968244090573042060e+00
-8.252357256176247047e-01
1.955553249552142159e-01
-1.963696135280967203e+00
1.348171064805254504e+00
3.232997465971511275e+00
5.462863457516296428e+00
-3.098824726411607777e+00
-3.962266128434929868e+00
4.594455508870511906e+00
-6.918758305782948259e-01
-2.317596858430862383e+00
-1.546933345824689221e+00
1.941786655711760234e+00
1.391808854369114057e+00
-2.807071228547461050e+00
-3.022325583865341336e+00
1.465958919679043460e+00
-3.754655949357383449e+00
-7.303797475464265387e-01
8.930647907152675646e-01
-1.433512370362167720e-01
-1.744174169174959710e+00
-5.707151793013840457e-01
2.459843892138945165e+00
7.948481606946011802e-01
-9.956884703067352405e-01
-2.458271122396677999e+00
-3.463448772780842955e+00
-1.307721546698970672e+00
-1.041499615350871544e+00
-6.029530954909487761e-01
3.523277085743144355e+00
6.278492319246074871e+00
3.931422764893619526e+00
4.718574749592855611e+00
-8.492670516481179988e-01
4.502855857051608623e+00
-3.332514619845466264e+00
-1.448925357331642738e+00
-2.474745626204315485e+00
5.311803478487138186e-01
1.104522203201314445e+00
-6.562154027830846559e-02
2.772086184827534883e+00
-6.449664657349511998e-01
1.711025912291758821e+00
9.843452589424678267e-03
-2.365982947266104475e+00
-3.653306360164921607e+00
-4.331095335006262204e+00
9.231989728719897315e+00
2.356351069348216587e+00
-1.495538072401024987e+00
6.744898713467502915e+00
-1.997462921097597821e+00
5.283647544655561745e+00
-1.082365413842326651e+00
-5.145705210533540352e+00
1.224367325874781365e+00
-1.941492225064872734e+00
-1.414850431739429482e-01
-9.476367603295045017e-01
3.469713974184966077e+00
-5.948813427247043872e-01
-2.242041411983050736e+00
-4.173148799398648023e+00
