4.897839627529412709e+00
-1.408067412874642876e-01
1.337979478012067514e+00
1.785504143158497925e+00
2.472285270377902133e+00
5.331189725693222803e-01
-4.751421652603330936e-01
-5.350164628500057029e-01
7.762014723205309386e-01
-1.148882292746911560e+00
2.607598557598881150e+00
-1.193755101178032074e+00
-2.391471712491813228e+00
-1.726131286908544338e+00
-4.838304022582993191e-01
4.135738760420183624e+00
5.558903313181078332e+00
-2.677402701848150990e+00
-2.096685942817433812e+00
-3.913942588819638857e-01
1.544083930241712643e+00
-4.001851157915362833e+00
6.664039836836334052e-01
7.860632062382524321e-01
-7.510524321814342485e-01
-9.701810633822599561e-01
2.319459095289561068e-01
-7.479160050433853790e+00
4.151577358673965712e-01
-2.217645216873600944e+00
-1.074623710232465834e+00
-3.097892021294581077e+00
4.377918528693310662e+00
-1.935993580197406416e+00
1.318288909466750258e+00
-2.926740062528299102e+00
-2.800264290780105636e-01
-6.745945165699509527e-01
-2.093045977523702028e+00
-5.739485455337076103e-02
2.947633976818545776e+00
-4.308553683419249491e-01
4.085776329871195323e+00
-5.684446401573035601e-01
4.940905087451894495e-01
7.784347243503637603e-01
-2.159828731780455424e+00
-2.301817812939523478e+00
-4.026439047451717546e-01
3.154471970613437648e+00
2.779761606618342373e+00
1.383857348974025570e+00
-1.469064829667620309e+00
2.547663122900079569e-01
3.161485781754461932e+00
4.473114840111322543e+00
-6.372249386669035509e-01
-2.480180996361951884e+00
-3.133394058788221415e+00
-3.312766491926251611e+00
3.611805182998200081e+00
-5.433734245657544371e-01
-6.830483319610849424e-01
-9.649692669107414744e-01
8.373045925796221978e-01
1.028767718394043129e+00
4.243224132882383870e-01
1.709495608005255018e+00
-2.298684230094280023e-01
5.800411848773517898e-02
-4.252420012380772607e-01
-9.619156276638272107e-01
1.309627354975627211e+00
-1.240829411066840304e+00
-1.169326682659736161e+00
4.251207144584691733e+00
-9.324404010932729747e-01
-1.431010128995189756e+00
-2.339088285257387767e+00
-2.171368697446283136e+00
1.748272006503009401e-01
1.027123895335549264e+00
-7.149619845132990648e+00
2.731798469448270428e+00
4.897730612896095126e-01
-2.365886938610020085e+00
-1.485180011980938408e+00
-1.075419974721141481e+00
2.819987164854935724e-01
-1.871323228983570175e+00
1.007771616625112499e+00
2.082927850191570229e+00
5.052264053501326124e+00
-2.754715554591340876e+00
-2.834768869973437244e+00
4.046366518300259507e+00
-1.198469972028516572e+00
-2.492748938938327719e+00
-1.276435648398582812e+00
1.759976615105186770e+00
1.032900239022775501e+00
-2.327994307946597896e+00
-2.808914484172943649e+00
1.245236187635661462e+00
-2.839245812288368587e+00
-7.921369522985599598e-01
4.179506748931687277e-01
-4.621000010774663491e-01
-9.765047212565286516e-01
-3.993023121366287564e-02
1.720656507290438064e+00
8.234574401601784110e-01
-8.984908789489225445e-01
-2.320450801749585956e+00
-2.812329833343744756e+00
-1.006902845565563309e+00
-1.022058127100045954e+00
-7.794716545068171021e-01
3.361385627945003840e+00
5.833918123035739534e+00
2.381561543981031814e+00
4.586609660227464857e+00
-7.612799726004797485e-01
4.229907116102793907e+00
-2.607611535115573087e+00
-1.317699160302307160e+00
-2.371717373876212065e+00
8.828584078161431092e-01
1.039160460571720623e+00
-4.092062807738467978e-01
2.770128091068310372e+00
-4.437150753319102359e-01
1.544222480062669822e+00
-4.342375240153498739e-01
-2.734497303094603371e+00
-3.977611383509525034e+00
-3.036440624227150664e+00
8.180284221112287923e+00
1.774766569848675868e+00
-1.495362704623152794e+00
5.643305530479336696e+00
-1.399633930694895945e+00
3.907364791462477172e+00
-9.715216276576226218e-01
-4.877461305423415716e+00
1.204587355868434351e+00
-1.648717112937493345e+00
1.840063394097912752e-01
2.905385495821599662e-01
2.902476603904249330e+00
-1.085956738734495941e-01
-2.161877202159770306e+00
-3.368188478188992363e+00
