3.235691649606060039e-01
-4.868756426364044820e+00
5.646638430226804672e-01
-1.877991276651284291e+00
4.118383280336415098e+00
2.969363936016795602e+00
1.243852336034051431e-02
2.768366266203568404e+00
1.957531777677012252e+00
-1.911294642298552837e+00
-3.703644621840616491e+00
6.089346314706771679e-01
-2.269331929028711059e+00
6.335517433086425676e+00
-9.455421857037872968e+00
5.450015503247180426e+00
-2.912895918465690404e+00
1.493465397293396446e+00
4.698707031540404699e+00
-2.579132630604781706e+00
-2.437541137095308841e+00
1.724126224627546833e-01
-2.044047846422463177e-01
-1.237897621030706885e+00
3.431675650208014794e+00
6.732664925123414967e+00
-3.839323090633545377e+00
-1.039425801466026256e-01
4.884553745439607297e+00
-3.628627468556291369e-01
-2.609467504364568313e+00
1.195904461585314937e+00
3.342727753094104859e+00
-3.157002148089001370e+00
-1.119422623785088167e+00
-1.444363574429474717e+00
-5.826273004085655849e-01
1.974857207183457364e+00
1.629002840494427673e+00
-6.159259315031323512e-01
-5.222759911117864640e+00
-7.666941439657288804e-01
-2.831991817883006579e+00
-7.916180971554327428e-01
-1.777245384540405926e+00
3.453806482450024751e-01
5.437874052091481225e+00
-2.351138754792208019e-01
4.358660377033869437e-01
9.275443524046058652e-01
2.748576801313062923e+00
-2.066066117832753068e+00
-6.200851694611547726e-01
-4.901105257145488281e-02
-1.695218523354053763e+00
1.245214783816203097e+00
5.694571877027894136e-01
4.724323960434944070e-01
2.051064105921842629e+00
2.124386048279771622e+00
4.305876119535769320e+00
