3.654283177189864285e-01
-3.853978478880163649e+00
8.101315842659384536e-01
-1.774732522132226764e+00
2.383550987201326521e+00
3.583895306169898376e+00
2.258148820884879893e-01
1.719086539703297500e+00
1.984932377833310779e+00
-1.653641640109309918e+00
-2.713437700682420406e+00
3.122598965071161636e-01
-1.867069734372399203e+00
4.605347207766885553e+00
-6.943904695892096690e+00
4.943221798894220420e+00
-1.844682939855435411e+00
1.724215821875499266e+00
3.958811073439760797e+00
-1.973666115956973055e+00
-1.676008418958630619e+00
4.211053745757764588e-01
2.408691437921578471e-01
-2.173883141577281020e+00
2.810940977777890648e+00
5.420010259814334042e+00
-3.324822351895683870e+00
-9.405407856542400413e-01
4.574928206834104394e+00
-1.342198548126481761e+00
-3.129881982231470072e+00
5.442718857065624860e-01
2.663795748609099512e+00
-2.285941899202841743e+00
-5.764826441126751355e-01
-1.517306551428462491e+00
-1.061732646741089248e-01
1.595961875215299752e+00
1.613076073190627291e+00
-3.353989651366071634e-01
-4.418783123004529578e+00
-8.650443989935430178e-01
-1.877010896780471727e+00
-3.831964138931103214e-01
-1.531034904340552893e+00
1.200367451933535001e-01
3.773474982072537731e+00
-6.637413791348834025e-01
5.389915164236791512e-02
8.296448603239658937e-01
1.695036716193900617e+00
-2.136070415706230463e+00
-4.905182954485822755e-01
1.787857825316410132e-01
-1.151781135641584797e+00
1.268091156313655876e+00
-3.950840190479798508e-01
1.938927885701362541e-01
1.180182704425614792e+00
1.732443993784032576e+00
2.810288511002764889e+00
