1.592076894655408978e+05
1.727375747665128729e+05
-3.670870028293968062e+04
1.325192235795937086e+04
1.360615431861540419e+05
-4.138817442840489093e+04
-2.294507686051759265e+03
3.321475548377345149e+03
9.956825645749646355e+03
8.133782514007674763e+04
1.386109002745969156e+04
3.455645152703295753e+04
6.851758138020825572e+04
-1.746166238705988508e+04
-4.764772003936672263e+04
-1.740283954504771464e+04
-1.305085368219652264e+04
2.313081312822700420e+04
-9.152139903693797532e+04
-4.079780246049931884e+04
8.753561648284037074e+04
-4.674001242486868432e+04
1.952406962699416908e+05
1.825331395888635307e+05
-7.324838796499211458e+04
2.724040659738687100e+04
-1.405963654513343645e+05
-2.127296741192154877e+04
-3.484209972733450559e+04
-1.189548703898554813e+05
6.749479380825109547e+04
7.396763109920007992e+04
-6.168832385944877024e+04
-3.000550287420102904e+04
-1.025629952200449407e+04
-6.518435510599382542e+04
3.357649468862876529e+04
1.214790975669626787e+05
1.652750390006581729e+05
2.263711418622555357e+04
-4.912572248484777811e+04
