7.789971011743867712e+04
8.451983095711731585e+04
-1.796142586095302613e+04
6.484114640752181003e+03
6.657438976668812393e+04
-2.025107456232862751e+04
-1.122693785744339493e+03
1.625185210898737978e+03
4.871836492933044610e+03
3.979828500285028713e+04
6.782178038483181808e+03
1.690833882257828736e+04
3.352538903983963246e+04
-8.543924245662543399e+03
-2.331384615456603569e+04
-8.515142455307965065e+03
-6.385732511043471277e+03
1.131781789886180377e+04
-4.478106854294265213e+04
-1.996220782909680202e+04
4.283084046917513479e+04
-2.286970830997973826e+04
9.553052175816708768e+04
8.931276314939594886e+04
-3.584015450634121953e+04
1.332862617717280409e+04
-6.879326085939464974e+04
-1.040878113544314510e+04
-1.704810538833749160e+04
-5.820416056243882485e+04
3.302494301468442427e+04
3.619207740558590740e+04
-3.018385960134077686e+04
-1.468157715041869778e+04
-5.018367908760470527e+03
-3.189445424398403338e+04
1.642884971061667966e+04
5.943925521161893266e+04
8.086844090898211289e+04
1.107625290538500485e+04
-2.403702706650784603e+04
