-5.739133624635059938e+00
5.698584637935306674e+00
-9.315949380524366497e-01
-3.665914341578247804e+00
6.879379182897750411e+00
-2.540392397307532413e+00
-6.035094208383977588e-01
-2.674206738493687396e-01
-3.149888289723862922e+00
9.335260595272747430e-01
-3.160477265642887446e+00
-1.904007471827118714e+00
-1.819687057994407109e+00
-5.225130575154528501e+00
1.126956640135458265e+00
9.622347327164815223e-01
3.084636192758205553e-01
-1.203263802015180461e+00
1.464744079202381588e+00
-1.771829655559589156e+00
-1.869194823861773269e+00
2.099795515373689803e+00
3.491471743961394925e+00
1.030143526421679834e+00
8.756331172000028085e-01
-2.633058074941150739e+00
-4.174644224042216578e-01
-2.050840106949104680e+00
2.929788101308111514e+00
4.192760919381956164e+00
-7.425776448163032839e+00
9.612072658499961619e-01
1.900710692416819114e+00
1.013602021747530202e+01
-1.714555042253412598e+00
4.433649379957884662e-01
-7.523312293601087219e+00
-1.023682925190849247e+00
-1.102120660595812929e+01
1.002077835416028018e+00
4.662933300823897120e-01
4.235043510445577475e-01
-8.885855369673416604e-01
3.224859872102534553e+00
3.736849238642498960e-01
-6.669761051413620745e-01
-3.301544704509343564e+00
-6.516480446695210871e-01
3.983661146139704456e+00
6.394422759857834038e+00
-3.415436408536164592e+00
3.042307803603796934e+00
-1.139705075229069209e+01
-1.957911416891469081e-01
2.593832631138373035e+00
2.700537923522374761e+00
2.482544343468521930e+00
9.946623782939489899e-02
-5.065508241465750849e+00
-3.871736016793435819e+00
-1.430324280750075339e+00
6.343530597990027609e+00
4.269125418837909081e-01
8.067778699488901140e-01
-6.300444787790297596e+00
1.690732839330857384e+00
-8.032013465327416668e-01
4.684650294190503494e+00
-3.582365195152133808e+00
-7.640671097045208526e-01
-2.597047110061793340e+00
3.258354338378465442e+00
-5.345196597323595533e+00
-7.080724824722611110e+00
1.470536171277769810e+00
2.271956810045741904e+00
7.371020578415299340e-02
-1.024723096525157473e+00
5.370246907285343596e+00
2.277168830119507881e+00
-2.131155210328952609e+00
1.128338513089703454e+00
-5.329371489288622143e+00
2.086266639453364213e+00
-5.772361668389347500e-03
4.887131257523464001e+00
2.234209943193252723e+00
-3.552486668466854347e+00
2.066338994560847020e+00
-7.592006205391719220e-01
-2.953985948456876454e-01
1.037173420375597566e+00
2.277975750822152090e+00
1.442296830351414982e-01
2.151421259761740146e+00
-4.612356922471234633e-01
-6.777529839097325981e-01
1.066053539238948744e+00
6.510646893703404103e+00
1.620064619066633682e+00
3.407753617136535240e+00
-3.557829334868154447e-01
2.949797466880581531e-01
3.108858308540840554e-01
1.394079699661851190e+00
8.919219210958266864e-01
-2.301875895148548956e+00
9.804091118455097842e+00
-1.205047859541734390e+01
-3.618343254732838687e-01
6.689230132050507649e-01
1.014577227759326572e+00
2.978383208508976310e+00
-5.519634154790422187e+00
-2.474115496418558102e+00
3.558161058250461473e+00
-5.617076331618228835e+00
-1.364850080109740293e+00
-2.333208303844259923e+00
1.188967615426668401e+00
3.645515767949722985e-01
-6.586900534613535640e-01
3.526026401281366240e+00
5.244327840158861775e+00
-1.122710637814030132e+00
2.194441738394807384e+00
7.592828977603818252e-01
1.189996712129560663e+01
1.188058366803393184e+01
-4.879711166105318298e-01
9.668671664744517003e-01
3.258908872824887393e+00
1.361983037076992309e+00
3.938075724024874269e-01
-4.695709724934900464e+00
1.171032881193277753e+00
-4.990468513632492886e+00
1.741431121218077749e+00
-1.548909117285959258e+00
-1.764472630555183663e+00
-6.945380198752666434e-01
-1.815283007145894523e+00
-1.762775471894349355e+00
-5.462834640950635645e+00
5.561920553513600929e+00
3.723751906049679761e+00
1.533367437264090416e+00
-1.017195095305673647e+00
-3.730159307186178275e+00
2.422585004950779108e+00
3.014704739581983262e+00
-4.390847867393112836e+00
1.554949282046411696e-01
-5.185570736101214884e-01
-6.228513899014713751e-01
-3.259388621809625519e+00
