-4.393680273126470581e+00
4.219515331393202118e+00
-7.612254598660797011e-01
-3.380076343714259579e+00
5.349104476536249209e+00
-2.132850662977247680e+00
-1.773266001765778643e-01
-2.186594066895550803e-01
-3.408444909854574600e+00
1.484506360426391502e+00
-2.414576330972455942e+00
-1.591450188281578360e+00
-2.006907371156303910e+00
-3.965069038661403589e+00
7.629226622301805705e-01
7.956322038297294341e-01
1.085132215245657061e+00
-7.311128965483231212e-01
1.301236820261225224e+00
-1.855163143740599097e+00
-8.609388433052775902e-01
1.053606640786040494e+00
3.651839975800500682e+00
9.154563921038021412e-01
9.888732333226193383e-01
-2.883469564564479448e+00
-3.907535758806659487e-01
-1.825835853564540479e+00
3.128829459290920045e+00
3.314152340290393184e+00
-6.704480456327714499e+00
8.955204050291289963e-01
1.351355612796923289e+00
8.953280026069789344e+00
-1.823251534613876235e+00
-5.651488490726279679e-01
-6.288506203312905996e+00
-7.942983942444072909e-01
-8.686258310348556222e+00
4.679865128772275895e-01
1.416196739701740537e-01
4.809646119486465921e-02
-5.655449118288566890e-01
3.401901587682893080e+00
2.744284659193212406e-01
-7.204071111792926807e-01
-3.631683866789181536e+00
-4.563045199227555027e-01
3.813067357733778362e+00
5.320862201154124449e+00
-2.909555137745381881e+00
3.009826907607986435e+00
-7.770626233860590482e+00
-2.406624940908186350e-01
1.596353501426165167e+00
2.092376844577259032e+00
1.772034331677486474e+00
1.058035059074429185e-01
-4.037661492156898291e+00
-4.074170601501021061e+00
-1.633072824563392977e+00
5.902320399234531223e+00
3.266308753543851751e-01
1.194290273232575750e+00
-6.414614922895919946e+00
1.032948383773875989e+00
-8.940943170991251243e-01
3.997675329151492374e+00
-3.880311929749194366e+00
-4.155717791440598496e-01
-2.856131551569308868e+00
2.882637161303859941e+00
-5.386180752850102671e+00
-6.493302442606078806e+00
1.305631635413498026e+00
2.638915372110893998e+00
7.133055546824931259e-01
-1.352456648846825482e+00
5.446485103923494719e+00
2.860569827902829765e+00
-8.531795754851181357e-01
9.925114201552536208e-01
-5.102517842623663924e+00
2.113435167479858379e+00
1.794579753338316763e-01
4.421345306750116499e+00
1.833815039029008886e+00
-3.344860296416504841e+00
1.806091856365388715e+00
1.841045489020487480e-02
-8.224344824187663772e-01
1.688152170379721762e+00
2.586463757361158855e+00
5.829607715322659978e-02
1.648038672367176272e+00
-9.324497996470713090e-01
-5.727886466167744217e-01
1.179227197395047222e+00
6.546664997535410535e+00
7.936742416622265539e-01
3.815549797703909896e+00
-4.486160288762839343e-01
2.660700278415053521e-01
4.775947299746685637e-01
2.025930159640997985e+00
4.836056672797977019e-01
-2.138663330571142218e+00
7.900461950163014002e+00
-9.787347212341291680e+00
-7.103074707346379579e-01
2.508571014038383229e-01
5.556157052773471605e-01
1.874239218397373952e+00
-4.809851498282635696e+00
-3.212123623320700894e+00
2.929506704811624562e+00
-5.630818524378366163e+00
-1.009104344245145057e+00
-2.216937518642629890e+00
1.271862539461337427e+00
6.668689137526917499e-02
-3.684131697371972880e-01
2.843963497769657511e+00
4.601988282534268393e+00
-7.723628915307214626e-01
2.401602142485443014e+00
1.310893938083854682e+00
9.167740570056510663e+00
9.010474209020586045e+00
-4.527894277116044641e-01
8.244060380461282200e-01
2.998981010467230313e+00
8.697430590078141233e-01
8.760878295104457258e-02
-3.156139013830412399e+00
9.898938676442898821e-01
-3.409815393875180511e+00
1.652253078875339121e+00
-1.278109077374369740e+00
-1.518234806054027164e+00
-1.212853448396593592e+00
-1.233979838127295725e+00
-1.162660450102654508e+00
-4.336264662480063592e+00
2.831748437840236665e+00
3.628820678512058251e+00
1.268622695482325202e+00
-4.359645600032364676e-01
-2.619039979401388774e+00
2.226740094902670553e+00
2.680561374445433742e+00
-5.240997652368840853e+00
1.884935754414227560e-01
-8.365371584799974336e-01
-7.839741835223341671e-01
-2.785375965855902081e+00
