5.034000537807727049e+00
-7.366826328246237066e-02
7.803729162148680398e-01
1.131061326112649423e+00
2.324084868663951919e+00
2.169997019143570793e-01
-1.129997910183489829e+00
6.051050044533459182e-01
5.663219059022743807e-01
-1.001035912051279286e+00
2.660955543103451504e+00
-1.437320488668958118e+00
-1.962994963798742498e+00
-1.388941417521980526e+00
-3.022094573426638009e-01
3.836429954594451353e+00
5.287611512323127094e+00
-2.660159871737797221e+00
-1.661652794690705814e+00
5.036079209956312308e-01
1.140080653820127354e+00
-2.562408694560219580e+00
5.890106028540723626e-01
2.969746761487316866e-01
1.357604292327867501e-01
-8.914337116098798308e-01
3.164926392770269215e-01
-6.708084388327080205e+00
6.235068776790871903e-01
-2.161420151613838492e+00
-7.589860782054416166e-01
-2.149272042238587144e+00
3.287965411756269329e+00
-9.099655866346580968e-01
1.162702910382361399e+00
-2.663012092597054181e+00
-2.397942418383122720e-02
-9.102342014729349895e-01
-1.130600529603929649e+00
1.172112786197548329e-01
2.077966529751374303e+00
-2.184195780738875381e-01
2.498688210870462445e+00
-1.713168151940476225e-01
-3.807031629496664404e-01
4.079698560062197665e-01
-1.551274044802431362e+00
-1.642585613506390541e+00
-1.176981532848622725e-01
2.743782168376259545e+00
2.355730418009165383e+00
1.230874406332453264e+00
-1.202020806176312240e+00
3.225953353968204484e-01
2.717610070643835751e+00
4.095016882764375588e+00
-6.691564413555789459e-02
-2.106068328750506424e+00
-2.832343149528610660e+00
-2.493053647683987517e+00
3.316364165558086885e+00
-1.158337806213882715e-02
-6.585587802737207230e-01
-1.029977652080949824e+00
5.310145417450937710e-01
7.244266394901750505e-01
6.997410814333047124e-01
4.839640398523356035e-01
-4.641416270673904276e-01
-1.897249555093305506e-01
-4.127917254094709554e-01
-1.032277278910826324e+00
9.910729131770633638e-01
-1.347204061802666386e+00
-1.396645886972999406e+00
3.197625136895649867e+00
-1.368367077115167030e+00
-1.491137719595988731e+00
-9.348244408240398151e-01
-1.496675985447735391e+00
1.228738614887783243e-01
8.647135388896818320e-01
-5.669894016575355522e+00
2.467918694177682504e+00
8.144881112092490216e-01
-2.070810368047956818e+00
-1.120611067027549757e+00
-9.321936503819063802e-01
-5.903037957049439566e-02
-1.140607414853912038e+00
7.988272871637858152e-01
6.782302288527849443e-01
4.669243814559242090e+00
-2.142607297515383813e+00
-1.924567821664953993e+00
3.026737161116396901e+00
-1.327718220989274833e+00
-2.124232120904241405e+00
-1.005191665534416412e+00
1.103870595600388915e+00
1.252756514092686846e+00
-1.604779578368187964e+00
-2.607003799056126336e+00
1.138790117376066835e+00
-2.091509635709141168e+00
-3.847591572607800270e-01
3.938306327084490910e-01
-1.104822508500333145e+00
-4.116270719415657808e-01
5.564354775152823285e-01
1.336006109125750241e+00
6.334160903067000969e-01
-3.821881536128610701e-01
-2.507421348927140414e+00
-2.251388891415766036e+00
-9.318087958709836416e-02
-1.308208694860916843e+00
-8.427006678950240692e-01
2.395942913907164851e+00
5.443726485081580080e+00
9.522856453080144057e-01
4.036053184810667993e+00
-4.570811379282119224e-02
3.717863056988707449e+00
-1.875856428769775208e+00
-1.312608978495746204e+00
-1.903642700831578161e+00
1.009852222849307868e+00
1.018714696760599114e+00
-2.813968773491333786e-01
2.509941308631158829e+00
-6.000620968874091909e-01
8.993163273669944058e-01
-7.317108221898480647e-01
-3.012179423933919242e+00
-3.779721364208145751e+00
-2.362553052953848987e+00
6.231430653608918568e+00
1.241521488453789956e+00
-9.974951834414689245e-01
4.729350245945808773e+00
-9.555968130607348510e-01
2.290695975787632843e+00
-1.042696552276983768e+00
-3.856156635558412482e+00
9.994697706366442169e-01
-1.264957218801616490e+00
5.287370785928114936e-01
4.144438054353380974e-01
1.481827434382342989e+00
-3.553448982737417716e-01
-2.463441566405420780e+00
-2.223000036486457720e+00
