4.679347045592568755e+00
-3.636125837146074180e-01
1.448405257551644398e+00
2.019591493898869494e+00
2.489063012368027294e+00
7.039139225986204007e-01
-3.967755159055114111e-01
-8.438879371958144526e-01
7.492611989091102487e-01
-9.977392786041506811e-01
2.657727216557010053e+00
-1.252351138706225164e+00
-2.379713686395042771e+00
-1.876668203629766829e+00
-4.642344577215017365e-01
4.114899997436647361e+00
5.523682446295000048e+00
-2.627087279984537727e+00
-2.161625827529568777e+00
-5.353126989923635559e-01
1.607562756895588807e+00
-4.315660154727595454e+00
7.399755324830339376e-01
7.883124110451006361e-01
-6.644703697929090769e-01
-9.534949231358649246e-01
3.357091692011753281e-01
-7.710871618859561849e+00
3.314649060211527498e-01
-2.188859681917541877e+00
-1.103290985309781647e+00
-3.000022627509125073e+00
4.680517455850772279e+00
-2.303734644331817627e+00
1.362701822458972423e+00
-2.825905709022062506e+00
-3.095384947833489386e-01
-5.406746805496851493e-01
-2.424457081445278384e+00
-1.353828466224414884e-01
3.247903167105421929e+00
-4.563868451840906726e-01
4.409394414253327454e+00
-7.792830567685808951e-01
4.355757167012652697e-01
9.179113459436353262e-01
-2.274043466577400974e+00
-2.297601061363482966e+00
-4.853207403932186526e-01
3.200746329454323469e+00
2.724732911767562271e+00
1.480776760769068945e+00
-1.501178721457183007e+00
2.608174747288135586e-01
3.540318941551413801e+00
4.487852376133355747e+00
-6.861100154240690197e-01
-2.465786871670224922e+00
-3.210569195381030916e+00
-3.382585335263967430e+00
3.862790245270562473e+00
-5.773395342901637139e-01
-6.396854671032590200e-01
-9.895391345866935140e-01
9.328400971051045154e-01
1.160879909840456081e+00
4.691100106249816992e-01
2.005449492314107296e+00
-1.816527488866493956e-01
8.275328539787252247e-02
-4.945253849895149267e-01
-1.108636840965108394e+00
1.298264387028972733e+00
-1.131115509479314829e+00
-1.228030840633034027e+00
4.233026781005601258e+00
-1.051081061772394687e+00
-1.460576075170827215e+00
-2.674644919445669178e+00
-2.319856106962258302e+00
1.449335567703464722e-01
9.623612709328135395e-01
-7.467412876632669949e+00
2.987214349450163731e+00
4.370429716763264416e-01
-2.549789789509533833e+00
-1.677973918966528810e+00
-1.061565362546480262e+00
3.854098557699332517e-01
-1.950782790860405624e+00
1.068541244377121835e+00
2.425284702022274530e+00
5.182225677964652277e+00
-2.946666697732856832e+00
-3.129942114697638278e+00
4.190647463290895658e+00
-1.072693733640508906e+00
-2.617950190538552491e+00
-1.412074109810712352e+00
1.894568820671294063e+00
1.000674696639439532e+00
-2.509728681513465176e+00
-2.845274249693910740e+00
1.333271982921488297e+00
-3.121751745483145157e+00
-8.116196556430272935e-01
5.115809478932896726e-01
-4.336260126194027009e-01
-1.268834680781349089e+00
-1.210518693801456713e-01
1.852240529456155027e+00
8.137870178290248502e-01
-1.001263684507935015e+00
-2.423168432857122578e+00
-3.053895060278088103e+00
-1.121466497600084544e+00
-1.011072107389532793e+00
-7.761828413469169519e-01
3.469345698778811382e+00
6.011555910167560413e+00
2.940392466855966891e+00
4.611956531034842932e+00
-8.422844681201806516e-01
4.268637020164417706e+00
-2.784593441906707767e+00
-1.348393746437578811e+00
-2.407845164094885249e+00
8.543226940999277819e-01
9.557995730468192841e-01
-3.580469504586514251e-01
2.834199348206064339e+00
-3.998153838095317436e-01
1.610750055308574957e+00
-2.509624959698540936e-01
-2.560146345397017242e+00
-3.782346688165132864e+00
-3.254740404357310268e+00
8.478810373198355066e+00
1.934964065775328423e+00
-1.436105601339134674e+00
5.921612696546002752e+00
-1.504022837520974987e+00
4.433371236087253919e+00
-1.042717732454780943e+00
-5.024819405010205742e+00
1.295669107547271937e+00
-1.833866136999320773e+00
1.000378514303295052e-01
9.986976046366813353e-02
3.228779907144095684e+00
-1.467495851457403244e-01
-2.180999736169757952e+00
-3.711939525437086829e+00
