4.576398017152480513e+00
4.200275216582985749e+00
7.029549007716138220e-01
-3.421586230919841043e+00
-2.031389810731212275e-01
-1.612496155246223584e-01
4.930954150042139439e-01
-1.044715374505020833e-01
8.475893838182959605e-01
4.035139424162842658e+00
5.380804492233113301e-01
1.358756429286575029e+00
2.277928491936400679e+00
1.601513179263078790e+00
8.245932804545943462e-01
-7.522800957626736285e-01
-1.550339156336441171e+01
9.155301374088176125e-01
-3.055769952917417598e+00
1.839537014812745452e+00
2.933115925005566282e+00
-5.102287660641913192e-03
3.978206295026018857e+00
8.436845400122933825e+00
-2.103514693775065947e-02
-8.904524156061606188e-01
-4.143553517960742560e+00
1.305133272471589834e+00
-1.562363147902297467e+00
-1.034294430484665739e+00
3.360464459342381360e+00
3.924452441840549088e+00
-1.818754287544302350e+00
2.403909472053755714e+00
-8.224527091039823823e-02
-1.132047446944317803e+00
-8.116282062391446672e-01
3.028799613313156947e+00
6.028564926112775169e+00
-1.201212509488461366e+00
-5.547631972555231883e+00
