3.119826385973186511e+00
3.904813749357019859e+00
3.581281923197643380e-02
-1.080477674911014319e+00
3.319155805292206551e-02
2.688639497699822911e-01
-8.247829419217023172e-02
2.092848972193752655e-01
7.593594988781895427e-01
2.788445598806722714e+00
1.084634198681807771e+00
1.686170772536179197e+00
1.424559439761661217e+00
1.469422434323815363e+00
-7.637462112698102379e-01
-8.359917174912330218e-01
-8.955756419327228102e+00
-5.772146999295804104e-01
-2.667600982542891241e+00
5.169853296641178098e-01
1.905380560047289507e+00
8.806268635173351012e-01
4.909390079533311635e+00
6.436114206984226982e+00
-2.840553175219229232e-01
-5.551292885133679578e-01
-1.565132441317380385e+00
3.814085817501702280e-01
-1.343105468194121244e+00
-1.067762146581238802e+00
2.884917035850737665e+00
2.902892657370927942e+00
-1.461601097484229506e+00
1.158608747494573876e+00
-3.013284944291731993e-01
-1.182301820192617647e+00
-6.422854391257057927e-01
3.068510035517377332e+00
4.285152207865460028e+00
-1.597998036807916966e+00
-4.388062083840397420e+00
