-6.837710712675729496e+00
6.299845120040098223e+00
-4.957577751744812744e-01
-3.511758432998368651e+00
7.393085595590434878e+00
-2.551240125152015814e+00
-5.661281039824566097e-01
-2.498243478306507726e-01
-3.142019066207706324e+00
5.635730708140656020e-01
-3.111682894565761082e+00
-2.303767970674446275e+00
-2.111741324147592191e+00
-5.393819609761965950e+00
1.363137132545469754e+00
8.084633045026132780e-01
1.797873405489811560e-01
-9.232949667969960750e-01
1.877117743572041864e+00
-1.783761356678816634e+00
-2.009316290785498005e+00
2.066597103112628453e+00
3.513644808525082208e+00
1.047904012517850703e+00
9.725084941773765035e-01
-2.493881268822107256e+00
-3.633596982727276270e-01
-2.185463034578046138e+00
3.073324785348504840e+00
4.647428081689279900e+00
-7.544876220443395454e+00
1.041751425604931391e+00
2.054163419727556228e+00
1.082317820986650680e+01
-2.466076222528888806e+00
5.480715462665513016e-01
-7.874205008499979286e+00
-1.007496635876073299e+00
-1.205510274449073194e+01
9.805900914674201552e-01
3.453332714516323954e-01
6.146399340666119926e-01
-1.255168104465874013e+00
2.789495091592892440e+00
3.884184201689779847e-01
-5.639869268875958852e-01
-3.077946523887472807e+00
-7.392034650951195829e-01
3.957131899912787354e+00
6.780007582678233113e+00
-3.266547955854331775e+00
2.952905733917141617e+00
-1.268932878370915418e+01
-1.738530356926855092e-01
2.516593257909649051e+00
2.736279392412376943e+00
3.149434209037788257e+00
1.735022484450361446e-01
-5.631305426131310909e+00
-3.676796744078882906e+00
-1.408088350111333487e+00
6.503645024189904866e+00
5.795385563006734131e-01
5.029837208368492796e-01
-5.914524459039705917e+00
1.927986617846880524e+00
-7.998904361072778357e-01
4.775901235929237210e+00
-3.369125855999509866e+00
-8.361147968993298818e-01
-2.725891967342610300e+00
3.221449556650989976e+00
-5.011678746204953683e+00
-7.296919559270325095e+00
1.649691716845980594e+00
2.148481231303184913e+00
6.375185125895921345e-02
-7.310848197682293659e-01
5.177732558724031264e+00
2.607761229411719395e+00
-2.269174649652176079e+00
1.355855383396624703e+00
-5.372458423915619008e+00
2.108702519389692220e+00
2.263066635952606376e-01
5.028169426680811682e+00
2.204490866527717863e+00
-3.713904210877003287e+00
2.290124029589506005e+00
-1.152266156585934898e+00
-1.126943075005997219e-01
6.494716485645914972e-01
2.314729150175132588e+00
1.948845877294673734e-01
2.301296627921551874e+00
-4.044549853955237140e-01
-7.406929135053229585e-01
1.036966059386963401e+00
6.170017494369433919e+00
1.710149747175028878e+00
3.018221741892089138e+00
-5.336519464493783005e-01
2.565410496488316205e-01
1.518365242054358077e-01
1.053993099488842233e+00
1.147349710301062142e+00
-2.289627223003384060e+00
1.097832200838717398e+01
-1.286312581015997658e+01
-2.890623907585561092e-01
8.294927094425244007e-01
1.072184069494928949e+00
2.693508078271074524e+00
-5.415660013264813166e+00
-2.273736332185311682e+00
3.531113742303899627e+00
-5.620123493393232472e+00
-1.597326595366936663e+00
-2.129419206322460845e+00
8.629968249754059739e-01
3.998480280401017772e-01
-7.418586405808902384e-01
3.495698645878879240e+00
5.323184580311316694e+00
-1.541886733147744160e+00
2.197845967846816073e+00
4.917509228138152721e-01
1.315996345739561590e+01
1.243046719525926669e+01
-5.596525828807701330e-01
1.016056069651735783e+00
3.377379799714030462e+00
1.534543902546686045e+00
2.724917975155909389e-01
-5.349507705452612782e+00
1.190456285299392292e+00
-5.716915903741527138e+00
1.555660630404937184e+00
-1.685822784283991016e+00
-1.753842540021149254e+00
-7.866671524120371073e-01
-1.791232195605792832e+00
-1.545936869565906813e+00
-5.205130111449088659e+00
6.530958615462264305e+00
3.873466181079330273e+00
1.592487249649224168e+00
-1.125718042620580839e+00
-4.331781482837833153e+00
2.913141829694942064e+00
3.171622857309902788e+00
-4.347286548446689380e+00
1.674110501001053741e-01
-4.517923890387320895e-01
-9.762626714699238484e-01
-3.517446047607875492e+00
