4.220062717978981581e+00
4.098224961934497479e+00
5.133417326306302098e-01
-2.803474843412982587e+00
-2.746436728677139616e-01
-1.093675013941453056e-02
2.479285849066754643e-01
-1.618244032614346573e-03
7.183264083535066957e-01
3.867694758173240821e+00
5.369899921438054946e-01
1.566130500001940096e+00
2.095630871554201580e+00
1.482640322747799333e+00
6.784004287486028462e-01
-1.046976215354720408e+00
-1.439675900558196453e+01
4.210782669141466261e-01
-2.638241083192981673e+00
1.400180886541110503e+00
2.970824975862785156e+00
1.315190910449866024e-01
4.072237104241169803e+00
8.352563717674000188e+00
-2.192041594945639549e-01
-8.431730342150915991e-01
-3.383434153160494784e+00
1.114321962171950453e+00
-1.372287265913758381e+00
-9.100408442813983090e-01
3.448642922877796391e+00
4.054405471706971298e+00
-1.688841928999521791e+00
1.951560348953978785e+00
-1.762616252298567776e-01
-1.297739763320508333e+00
-8.728687993506767384e-01
3.253176480102180079e+00
5.586525181075835178e+00
-1.285919156653184459e+00
-5.503302137993506982e+00
