4.403780250897375126e+00
4.183514520256119695e+00
6.425287513708480835e-01
-2.998878225148418508e+00
-1.716310147344268788e-01
-1.292052049542502523e-02
2.952774832208757694e-01
-8.017147990502160315e-02
8.099545937323375799e-01
3.906861088961460560e+00
5.077566347220785481e-01
1.467175132036207863e+00
2.224362005627376071e+00
1.496503463443648263e+00
7.146810476794949185e-01
-9.552491069292534664e-01
-1.478966727140989335e+01
5.835380718613369933e-01
-2.727277693110325085e+00
1.551408623718761204e+00
2.984640435587820217e+00
9.135831544664974047e-02
4.050019529961423892e+00
8.293324736788699525e+00
-1.228294388414428173e-01
-8.777790198603985239e-01
-3.664492586626520776e+00
1.105708817239406505e+00
-1.432414740817227194e+00
-1.002188368699466592e+00
3.408053795830270793e+00
3.982297693593711774e+00
-1.698510314355361928e+00
2.145143644093317370e+00
-1.587453864012473570e-01
-1.302963682127168843e+00
-8.328211777620320166e-01
3.133441484129403154e+00
5.729897154768095469e+00
-1.279354441572061241e+00
-5.422411790389450204e+00
