-5.089932151690260071e+04
-3.160764200500983497e+04
6.423228552800852776e+04
-2.263622496038406825e+04
2.338297797422480071e+05
-8.275722705008732737e+04
-4.221987373552718782e+04
-5.412967618929254240e+04
-1.153043599356767372e+05
7.662169324167966261e+04
9.329909625519003384e+03
-4.206094180166490696e+04
-4.996213148655499390e+04
-1.873228466489263610e+03
-1.462103113731426711e+05
1.091700496386643063e+05
-2.303336605314411645e+04
5.169569614397600526e+04
-2.300196335109619031e+04
6.051268030185787939e+04
-2.013827031242923567e+03
-3.109063502764953591e+04
9.650557337359455414e+04
9.918328596643843048e+04
-8.030613849750805457e+03
9.781060894242110953e+04
-1.010612864637903294e+04
-5.797539887145032117e+04
-5.669806260939202912e+04
-3.545486960624736821e+04
-1.956699198562396487e+04
-7.010385541612809175e+04
5.198996500141359866e+04
-8.079926534161394557e+03
5.033690715226532484e+04
4.152545775934505946e+04
1.263344360080657498e+05
-5.369971163440486998e+04
-3.400240758624953742e+04
-4.340744943796261214e+04
7.786689851692592129e+03
7.397614709945331560e+04
1.671801047876292068e+04
-2.014044421705515106e+03
-8.516619112779248098e+04
-3.445526210981766781e+04
-1.613594264596229368e+04
7.320551692109179567e+04
8.932707763441740826e+04
-3.277624987527076883e+03
-7.862045502944984764e+04
-6.351727348844945664e+04
-4.848731574016155719e+03
-5.642601215422688983e+04
-3.145077120988160095e+04
7.010769491960681626e+04
-2.364467646349774441e+04
6.029065526490542106e+04
4.284022607544413404e+03
-6.567137175611093699e+04
-6.138097611665321165e+04
1.342071965516480850e+05
1.028410961447612353e+05
5.050251092917070491e+04
1.365580259158867411e+05
1.153752699283498805e+05
3.472593990633015346e+04
-1.053589130648428836e+05
-1.588035806198030332e+04
4.196583421411750896e+04
3.936106105444759305e+04
5.586802204564020212e+04
1.443497994939151067e+04
4.699893769403893202e+03
-4.473888684583115537e+04
1.673310127491036110e+04
-9.067076924317931116e+03
1.777904390589657487e+04
-8.889599764695513295e+04
-1.789735415864648894e+04
-9.588790291631463333e+04
-1.165832413832639140e+05
8.285464554800483165e+04
5.520880974710328883e+04
-2.106216767450589396e+04
-1.382105219020380464e+05
-6.942176822594452824e+04
5.674819615658870316e+04
2.562352037952761384e+04
1.700511763883264211e+05
-1.495990683369031467e+04
-3.487469701500340307e+04
-4.431149490869935107e+04
-7.070917209301952971e+04
-3.190607936258447444e+04
-1.561268877719908960e+04
3.779860456996943685e+04
-2.695436801831059347e+04
-3.584262517072392075e+04
-8.045143781528968248e+04
1.094329899456325511e+05
3.075151520811981754e+04
8.587657217663920164e+03
7.207155300744617125e+04
-2.514167553372325710e+04
4.002324999218195444e+03
-7.588185830609171535e+04
7.252020931917315465e+03
-4.367479737201752869e+03
5.350097335324098822e+04
-2.418904421633199672e+04
-1.589309040228121012e+04
-5.843929681330789026e+04
8.060952648042580404e+04
-3.465864121251000324e+04
2.075903140792778868e+04
-1.639859855702872665e+04
-3.954758408151978074e+04
-3.536255637496735289e+04
-3.796143782953904883e+04
-8.011357233464166347e+04
1.805282270369655089e+04
1.376019584047119497e+04
-1.527974015823869850e+05
2.694834729421585143e+04
-1.410352598892336027e+04
9.725499175068236582e+03
7.641162757576288641e+03
4.229998362704731699e+04
-7.861760421048018907e+04
-2.798610415116361401e+04
3.544766918463643378e+04
-9.732639639183265899e+03
-1.957272313547935482e+04
1.485410640172560488e+04
-1.890727118314852123e+04
2.555863879446435894e+05
-2.954007060214594094e+04
1.905067993288327852e+04
1.976569530940453205e+02
-5.767096387892052007e+03
-1.359560598278568023e+03
-6.915248136573789452e+03
4.353258987125629938e+04
7.671108069465664448e+04
-6.274641949876320723e+04
4.931299945332088100e+04
-7.190189814026615932e+04
-1.170727857287706502e+04
-6.690115342795080505e+04
-3.726141948340150702e+04
-7.802267562450865807e+04
-1.353616186341833090e+05
-8.150000174508932105e+00
-3.870826640162543481e+04
-3.863943296515547263e+04
2.052781768347848265e+04
2.252713999694460654e+04
-1.599393531724431523e+04
-5.510960260804786230e+02
3.993009303272956458e+04
-6.122776131593874015e+04
8.304396418597453157e+04
6.272349656447858433e+04
4.026252633035272083e+03
4.825860204814765893e+04
-2.715422475367928564e+04
-3.460197440711224044e+04
-8.885017402627534466e+03
-2.216318538848500975e+04
-1.903737575670650767e+04
3.304709069810269284e+03
-2.916071747004021745e+04
