-6.114823468792218773e+04
-3.797204861782574153e+04
7.716587869848105765e+04
-2.719417774294919946e+04
2.809129438779641059e+05
-9.942093904139634105e+04
-5.072112300784086983e+04
-6.502904252083068423e+04
-1.385216512079839304e+05
9.204997514499914541e+04
1.120854829487055758e+04
-5.053018908374139573e+04
-6.002233528071988258e+04
-2.250415339130737721e+03
-1.756507192472135357e+05
1.311521571850486798e+05
-2.767128580687972863e+04
6.210496458420628187e+04
-2.763355996422723183e+04
7.269730649483086017e+04
-2.419324349666118451e+03
-3.735093888502845948e+04
1.159376053250807890e+05
1.191544929607963713e+05
-9.647630768704357251e+03
1.175054183893906447e+05
-1.214106412105911295e+04
-6.964912675977588515e+04
-6.811459043984094751e+04
-4.259394080120584840e+04
-2.350693452124498071e+04
-8.421972780305198103e+04
6.245848641160365514e+04
-9.706872886468632714e+03
6.047257449175864167e+04
4.988688180742465920e+04
1.517727056464224297e+05
-6.451250177478117257e+04
-4.084901600010354014e+04
-5.214782488908447704e+04
9.354591069259029609e+03
8.887173088630371785e+04
2.008429184917624661e+04
-2.419585513128288312e+03
-1.023149638807916635e+05
-4.139305576058323641e+04
-1.938502082976679958e+04
8.794592925281060161e+04
1.073136722532094573e+05
-3.937596336912690276e+03
-9.445120076532961684e+04
-7.630689428185907309e+04
-5.825055568338229932e+03
-6.778776083615227253e+04
-3.778359085630137270e+04
8.422434041581001657e+04
-2.840568758917185187e+04
7.243057525634768535e+04
5.146638737168561420e+03
-7.889473440401218249e+04
-7.374043938303674804e+04
1.612306983075021126e+05
1.235488272772891651e+05
6.067152367838096689e+04
1.640548826265010575e+05
1.386068393940826354e+05
4.171823631177103380e+04
-1.265736231948390923e+05
-1.907797260872605329e+04
5.041593095788378560e+04
4.728666958996166068e+04
6.711741574909508927e+04
1.734155810638314870e+04
5.646248292806390054e+03
-5.374735597638196487e+04
2.010242127638592865e+04
-1.089279250053509713e+04
2.135897133567119454e+04
-1.067957914748994517e+05
-2.150110413598239393e+04
-1.151955628585815430e+05
-1.400580438467171043e+05
9.953797339462651871e+04
6.632546671836555470e+04
-2.530317366940465217e+04
-1.660401195485390199e+05
-8.340029787078607478e+04
6.817481870651245117e+04
3.078298474327984877e+04
2.042920992433573119e+05
-1.797218247147294824e+04
-4.189694664270609064e+04
-5.323390586159445957e+04
-8.494692897422634996e+04
-3.833057830028047465e+04
-1.875640635289461352e+04
4.540960221548180562e+04
-3.238180730760707229e+04
-4.305977349900109402e+04
-9.665086397814667725e+04
1.314680422522805165e+05
3.694353505932083499e+04
1.031683848262622269e+04
8.658363424665408093e+04
-3.020411726850178820e+04
4.808219462576698788e+03
-9.116116957896358508e+04
8.712263045772624537e+03
-5.246900508810798783e+03
6.427374623353006609e+04
-2.905966736954655062e+04
-1.909326868949184791e+04
-7.020643360345427936e+04
9.684078483581542969e+04
-4.163738658330203907e+04
2.493899892171220199e+04
-1.970056423611113496e+04
-4.751075025536547037e+04
-4.248303969362948555e+04
-4.560522302288004721e+04
-9.624496706070433720e+04
2.168787729515224055e+04
1.653090177882804710e+04
-1.835641633958083112e+05
3.237457427111548895e+04
-1.694336371087986481e+04
1.168379240215963364e+04
9.179761137556943140e+03
5.081736355293091765e+04
-9.444777591520962596e+04
-3.362129029691889446e+04
4.258529052734377910e+04
-1.169237064568966343e+04
-2.351381967581962454e+04
1.784507842664373675e+04
-2.271437459596437111e+04
3.070503882431398961e+05
-3.548815811381620006e+04
2.288665964071041526e+04
2.374564806620662694e+02
-6.928339177911917432e+03
-1.633317067072911414e+03
-8.307678833007810681e+03
5.229816317171647825e+04
9.215736134956724709e+04
-7.538082377115885902e+04
5.924249624301351287e+04
-8.637981825608473446e+04
-1.406461611661050483e+04
-8.037214070420415374e+04
-4.476425137846903817e+04
-9.373305454538819322e+04
-1.626175708694149216e+05
-9.791056315144487598e+00
-4.650243044012272003e+04
-4.641973693847657705e+04
2.466122879306718096e+04
2.706312780462922092e+04
-1.921441939137699956e+04
-6.620628356934034855e+02
4.797027989980350685e+04
-7.355637377444833692e+04
9.976541258556993853e+04
7.535328515328356298e+04
4.836965082843804339e+03
5.797578898514836328e+04
-3.262190651117367815e+04
-4.156930954391888372e+04
-1.067407409667969478e+04
-2.662588854189257108e+04
-2.287067658115399900e+04
3.970133977305671124e+03
-3.503241973341575067e+04
