1.026262127878013075e+00
-5.695186599765236224e+00
-1.434867342960629344e+00
-1.999345640332052199e+00
6.700805983667578403e+00
2.330051792802834143e-01
-6.778165038121848340e-01
1.870077681424149318e+00
4.076256861138951137e+00
-2.919327373866977382e+00
-5.128803294808122359e+00
1.723565995462678302e+00
-2.981598644435649703e+00
8.282114508792361107e+00
-1.385386772883612849e+01
7.750622345367503385e+00
-3.424842740839054045e+00
1.537161604206218612e+00
5.876422911390420722e+00
-3.149632782097896211e+00
-3.817544649207739837e+00
-1.733264849636100280e-01
-4.298863843706115517e-01
-2.892705740364434064e-01
5.610444974893123771e+00
9.314446676581013662e+00
-2.378902355336755647e+00
1.790173750514227891e-01
4.784809270095834677e+00
-5.998572365233201253e-02
-2.544302188555292332e+00
1.656963317780721923e+00
3.497037607190737418e+00
-5.385266302677827355e+00
-2.697742768492105370e+00
-2.998752100388772490e+00
3.730406357136359929e-01
1.970828394939779571e+00
1.734574962277761756e+00
-2.342671769018574324e+00
-4.838295055149508528e+00
6.485375677641229686e-01
-3.385569229417448867e+00
2.863441612195600783e-01
-2.729127373015586500e+00
-1.138505451542108915e-01
8.996650179574437800e+00
1.135242369559250619e-01
-1.705500686892378326e-01
1.212012574050490343e+00
6.967089229440013298e-01
-2.511376436983198346e+00
-1.235215519173735288e+00
-5.607216203370057883e-01
-1.474747595043893966e+00
1.410919688691976148e+00
1.455899069400196311e+00
1.429744664679304833e+00
3.855056893486473513e+00
5.244148777106900639e-01
4.747516880486156055e+00
