3.437470879035814941e-01
-4.849933003529034892e+00
5.675927473155573111e-01
-1.862473022502849851e+00
4.092898487441819277e+00
2.982044384343760512e+00
3.326788667321736725e-02
2.774226680000903222e+00
1.948271820775123064e+00
-1.904237925968304435e+00
-3.694016595166840666e+00
5.998127427303521220e-01
-2.273467295328894355e+00
6.320242588170975395e+00
-9.407983736182517376e+00
5.446750770970456124e+00
-2.917176513150703254e+00
1.471499434086743996e+00
4.692665677555837078e+00
-2.572177173673800610e+00
-2.433173937154282207e+00
1.793301159826214963e-01
-1.868536903387023607e-01
-1.261601492073102904e+00
3.428014916567595272e+00
6.708971531736185767e+00
-3.843741217584232484e+00
-1.272801116664376564e-01
4.908344925034368700e+00
-3.869482820123426592e-01
-2.602395985545001622e+00
1.196839184546798052e+00
3.341307366837339643e+00
-3.129604180799499424e+00
-1.099515733330688860e+00
-1.460952325658508189e+00
-5.906286109721241573e-01
1.958745641169674423e+00
1.630015128523346846e+00
-6.108025940654669972e-01
-5.233003337011097322e+00
-7.564734448202399264e-01
-2.823865670099237501e+00
-7.849484773655950320e-01
-1.774992852080548467e+00
3.424165410086179584e-01
5.405297192671626227e+00
-2.421670159031537040e-01
4.221130799102594811e-01
9.010561965757548641e-01
2.726962234810320851e+00
-2.041557319553048977e+00
-6.249219763477682488e-01
-3.809606816486343916e-02
-1.680643005107099297e+00
1.257445310988748233e+00
5.349071466809766084e-01
4.623665005750789980e-01
2.041175360901103630e+00
2.136761506126156451e+00
4.287966779445739895e+00
