2.646908577452219106e+03
-5.563471626698777254e+04
1.140178467372680170e+05
4.251628744526264200e+04
-1.456793715513826173e+05
1.140070752982634294e+05
2.627117548605339834e+04
1.311266022308715037e+04
2.183372289271917252e+05
5.578464081412395171e+04
-6.724965010018175235e+04
1.092526783662671369e+04
-4.659504600359318283e+04
2.076323685756950581e+05
1.826658193546575494e+05
-1.691126279477707067e+04
2.847589763562283770e+04
-5.315136883475581999e+04
5.186024508268935460e+04
-2.432929187540869316e+04
8.882205682051814802e+04
3.043413929999626271e+04
1.095869612957365607e+05
-1.114141538975077310e+04
5.461884012923479531e+03
1.342916022667520447e+05
9.856156328097078949e+04
2.146813682364004490e+05
-1.449058592024628888e+04
1.267022155831954733e+05
1.739373324132022972e+05
1.356709325019220123e+05
1.317859162361389899e+05
2.523058142859654617e+05
-2.679115322821145674e+04
6.060940237600288674e+04
-1.276677202700457856e+05
-1.294027760247498236e+03
1.295910453048411182e+04
3.303372973231673677e+04
-6.482500003744479181e+04
1.323052934241416515e+05
3.240032764334129024e+04
6.112756477211974925e+03
-7.926298348434902437e+02
3.339744531014091535e+03
6.428050744232298166e+04
7.326867969556791650e+04
-5.156334882794004807e+04
5.130743251163071545e+04
-1.411819216170401778e+05
-1.461489297372325382e+05
5.132244771374589618e+04
-2.528801981608065034e+04
2.178210459592998086e+05
-9.873894882202142617e+04
-8.419765161189783612e+03
8.746141211191799084e+04
-1.095857521046720794e+05
9.661711640890852141e+04
1.460202441163870681e+05
1.013932301107534477e+04
-1.088006975696344889e+05
1.777010927821063888e+04
2.163996728628384153e+04
-8.508236162880805205e+04
1.152888903184371884e+05
3.005647367589623900e+04
2.243655910048352234e+04
1.197071246988559142e+05
1.384459448642423376e+04
-4.428068648937128455e+04
-1.010897518956091953e+05
1.524886605911896331e+05
1.835633692995333113e+05
-1.108676758615594590e+05
8.305617538524755219e+04
-6.160164314306875167e+04
1.529693491965112044e+05
-4.306791695441861521e+03
-1.396329011923034268e+05
-7.215139440588027355e+03
-1.882156517392135129e+03
-1.670410300997390004e+04
