2.558457205031100330e+03
-5.377557876220425533e+04
1.102077283560283104e+05
4.109552663515415770e+04
-1.408112244393397414e+05
1.101973168646890117e+05
2.539327530217388630e+04
1.267447629686318396e+04
2.110410843932458665e+05
5.392049330179178651e+04
-6.500237798172931070e+04
1.056017969476581675e+04
-4.503798589122242265e+04
2.006939468576148211e+05
1.765617013076717267e+05
-1.634614149957472910e+04
2.752432256111893730e+04
-5.137521700256059557e+04
5.012723855169894523e+04
-2.351628334358949724e+04
8.585390261452601408e+04
2.941712593864664086e+04
1.059249091913917800e+05
-1.076910427544485356e+04
5.279365001476217003e+03
1.298039986425426323e+05
9.526794535459569306e+04
2.075073910860334872e+05
-1.400635604440152383e+04
1.224682254285685922e+05
1.681248929892369779e+05
1.311372359928426158e+05
1.273820447703248064e+05
2.438745463028070517e+05
-2.589587702110475948e+04
5.858402648374549608e+04
-1.234014659808136930e+05
-1.250785416208974311e+03
1.252605195328727677e+04
3.192984622236016003e+04
-6.265875210982275894e+04
1.278840660037344205e+05
3.131761044209008105e+04
5.908487351979980303e+03
-7.661426349036446481e+02
3.228140756777014303e+03
6.213245474732875300e+04
7.082027050993815647e+04
-4.984026363742313697e+04
4.959289924073634029e+04
-1.364640651582055434e+05
-1.412650914651987550e+05
4.960741268194984877e+04
-2.444297360723217207e+04
2.105421506391419680e+05
-9.543940322791853396e+04
-8.138403050569541847e+03
8.453872637917764951e+04
-1.059237404076951061e+05
9.338847579074052919e+04
1.411407061136835255e+05
9.800498677137060440e+03
-1.051649199298672320e+05
1.717628803061618964e+04
2.091682753679445887e+04
-8.223917629214571207e+04
1.114362976522449026e+05
2.905208071369909885e+04
2.168679975414641012e+04
1.157068885145025270e+05
1.338195161565430863e+04
-4.280096500405128609e+04
-9.771164984514719981e+04
1.473929684230334533e+05
1.774292579520169529e+05
-1.071628262983252935e+05
8.028069882989719918e+04
-5.954310968036596023e+04
1.478575939246988564e+05
-4.162872241842852418e+03
-1.349668081315867894e+05
-6.974032138595680408e+03
-1.819260757223997189e+03
-1.614590434422404724e+04
