8.952427602680399499e-01
-8.004179425908101164e-01
5.924607976159257383e-01
5.804362678397037012e-01
-1.433920693787859690e+00
1.027347709091359640e+00
1.219657935103528601e-01
2.441496396234024147e+00
2.840746487293748679e+00
2.168922533838706090e-01
-7.162361676106052677e-01
-3.424249730461444985e-01
-6.656201535502633826e-01
2.296196647778740552e+00
2.173142653175035299e+00
5.457092602521882441e-01
-4.269758222135163095e+00
-1.417984551879453159e+00
9.006404496685170846e-01
2.504011639306260140e+00
2.725527450823549969e-01
-8.452553513043610245e-01
5.783413603543621218e-01
-2.710356808436195308e+00
1.190292571114106579e+00
6.020904945449809809e-01
2.528910495931123714e-01
1.780025809748415844e+00
-3.913292547199121341e+00
8.722442990012360120e-01
1.982045732463847409e+00
-7.201751843134723829e-01
1.327251893381947490e+00
5.853129582573255441e+00
-2.187665346803806976e+00
-2.797225084198529110e+00
-2.638243414377161145e+00
-5.465974964413806703e-01
-1.353159356089821963e-01
1.554562341942595793e+00
-7.271189774966206887e-01
1.120839155447582725e-01
1.283260403542732409e+00
1.016788611481322935e+00
1.298634263763342123e+00
-1.681086286040515354e+00
7.310093964351882523e-02
3.822012122268118040e-01
-2.114060813436050346e+00
-6.092536488730440070e-01
-2.442744393682391824e+00
-1.020936541489924521e+00
5.843174228636283107e-01
-7.832214645695725341e-01
3.440027598943766307e+00
-1.588862215882181461e+00
2.413533779474323460e+00
-3.725646652555854588e-01
-4.091889083629396850e+00
1.972811858002230023e+00
1.753495717225961315e+00
1.832832055263601267e+00
-9.054017342875456675e-01
6.896725417927382917e-01
1.097582766653765196e-02
4.156635635259029460e-01
1.740179659687167035e+00
-1.084051131440436411e+00
1.557730958349564654e-01
2.095587163860120894e-01
8.216551864023317053e-01
-3.688960044384864134e-01
-3.047291967379528010e+00
4.399516534993121120e+00
4.680641733643278179e+00
9.684322610006693699e-01
-6.797847592301053954e-02
-1.427968429261399219e-01
2.716097746850742567e+00
9.599149379852964792e-01
-2.006585028137910065e+00
3.171343908865413841e+00
-1.930510526283282902e+00
-1.875634520924803317e+00
