9.049906860160148447e-01
-8.799651786882192184e-01
4.958097271500438996e-01
7.939637078783592372e-01
-1.493878082331592694e+00
1.070521266597567633e+00
3.076697746421402924e-02
2.599763190753587416e+00
2.734974078172983436e+00
1.108581991635247954e-01
-8.605413668619474876e-01
-4.478721551925737288e-01
-5.713034619216870169e-01
2.406411082593952866e+00
2.154216067208644336e+00
7.658340702386299270e-01
-4.466857513439713045e+00
-1.536928031192005939e+00
8.517855763728634511e-01
2.765232071887221643e+00
1.675733171794453469e-01
-1.002556566382502901e+00
5.522180446058779779e-01
-2.650868577700324469e+00
1.375375416831267295e+00
5.316682139637252114e-01
3.152188499935033028e-01
1.813933456694201141e+00
-4.216831211932319690e+00
1.018101074705660691e+00
2.017907775424657491e+00
-8.630747632869044672e-01
1.283523551815077823e+00
5.978026127565325254e+00
-2.254141451382635886e+00
-3.177231120338868120e+00
-2.735900747432539859e+00
-6.253209159325687772e-01
-1.900546458487726298e-01
1.452748384408770299e+00
-5.167170908090574777e-01
-1.809806745135675854e-01
1.369980953675741686e+00
9.651830059878148127e-01
1.399031256497675013e+00
-1.761584047288025090e+00
-1.918002076732499006e-01
4.139847321221679088e-01
-2.156274647873426709e+00
-5.314973374012149643e-01
-2.406332279874002111e+00
-1.003332130074911177e+00
6.033891751257790537e-01
-8.224849096007322835e-01
3.534763738491457197e+00
-1.748516168970280837e+00
2.537439566729913665e+00
-4.702736879279632021e-01
-4.111852248616282068e+00
2.129198486512340782e+00
1.571597728173292019e+00
1.867375352336204219e+00
-9.204322543889258412e-01
7.015728309248214778e-01
1.444732838828421961e-02
5.133243423575528652e-01
1.983586243292535523e+00
-1.071190722296567532e+00
2.176769142458807593e-01
2.964708073862691862e-01
9.752582244626482044e-01
-2.513986511378201172e-01
-3.201235908023997379e+00
4.564987792826000756e+00
5.144690588282655241e+00
8.412806416217322170e-01
5.051205228745192510e-02
-2.105573107684053369e-01
2.868603566076696865e+00
9.591730764330059777e-01
-2.199884962702166824e+00
3.458402033049834845e+00
-2.136688419384333404e+00
-1.908460607696140343e+00
