-1.992036941145482706e+04
2.234126847103772161e+04
1.794480497828416992e+05
7.585069849719738704e+04
-3.421679087543036439e+04
2.753865288183795637e+05
-2.359917768058122965e+04
2.140300889756932520e+04
8.062451478773467534e+04
-8.775150821633606029e+03
-9.212016246853079792e+03
7.186845385974828969e+04
8.329853473095802474e+04
1.757371287803930172e+05
-9.185285372408636613e+04
2.759518499197452329e+05
7.780695238878886448e+04
1.593973863806516456e+05
1.885379692521730904e+05
5.829814516933824052e+04
5.859130657914224139e+04
3.551145763745813747e+04
2.469227277728867193e+04
-1.262989990744418901e+05
1.703121721345194965e+05
1.947030365791630466e+05
-1.176049982478573365e+05
-1.275037399104969663e+05
1.957218434079369472e+05
-1.119964086814008988e+04
9.541153991106621106e+03
-3.684392090757457481e+04
2.024610055467626662e+05
-3.745693985724197410e+04
-4.519444046897450608e+04
-3.741655149087433529e+04
-4.924095248955774150e+04
2.228106069564817881e+04
8.889307447664985375e+04
-5.200779202779133630e+04
-9.981158318630025315e+04
8.452999369303409185e+04
-4.695149827125010779e+04
3.727105470243404397e+03
5.144818631685688888e+04
-3.493885681152351026e+04
9.708876758158944722e+04
3.463817554859466327e+03
1.258130318191140032e+04
9.838388233285585011e+04
5.260819372751743504e+04
-3.585187114368786570e+04
-7.579235395951711689e+04
4.599728509557182406e+04
-7.946716092107491568e+04
-5.452091940687453462e+04
-1.021755549499276967e+05
3.779995727539055224e+04
-1.393004392966246996e+04
7.255529168462802772e+04
4.921722900076360384e+04
