-1.651799772155343089e+04
1.852541055232681538e+04
1.487985697567292955e+05
6.289550354595738463e+04
-2.837261006787471706e+04
2.283508885609701101e+05
-1.956847059945692672e+04
1.774740442319030626e+04
6.685395858167906408e+04
-7.276367133768164422e+03
-7.638616545380505158e+03
5.959342081398620940e+04
6.907125959739969403e+04
1.457214689561755513e+05
-7.616451267516058579e+04
2.288196535959673638e+05
6.451763196419383894e+04
1.321725320788048848e+05
1.563359434862129274e+05
4.834090217845969164e+04
4.858399202278773009e+04
2.944614952809419265e+04
2.047486655747933401e+04
-1.047273037891793065e+05
1.412230874419983593e+05
1.614480257953840191e+05
-9.751822634294832824e+04
-1.057262765478659276e+05
1.622928218194338842e+05
-9.286757615838934726e+03
7.911538015728949176e+03
-3.055102990481963570e+04
1.678809443363926839e+05
-3.105934606124847414e+04
-3.747529221341275843e+04
-3.102585597229190898e+04
-4.083066554789515794e+04
1.847548618214259841e+04
7.371025965125128278e+04
-4.312493269949549722e+04
-8.276390209450109978e+04
7.009238706294055737e+04
-3.893224696034321823e+04
3.090520983514904401e+03
4.266090687410768442e+04
-2.897134813546991063e+04
8.050613964914411190e+04
2.872202281858578317e+03
1.043243390724887286e+04
8.158005058265659318e+04
4.362278661491505045e+04
-2.972842087578595965e+04
-6.284712417504496261e+04
3.814101208230580232e+04
-6.589427916320784425e+04
-4.520882137968222378e+04
-8.472411073315037356e+04
3.134377657628556335e+04
-1.155081159082267368e+04
6.016294768329807266e+04
4.081099399834931683e+04
