-1.044904059076038338e+00
-1.192987164057300042e-01
1.923381386178051322e+00
-1.071727920200901796e+00
4.643118403543350148e+00
-4.546893266568696745e+00
-4.716750838663915091e-01
-3.937545789377779881e-01
-8.834892104287206394e-01
2.669258871652141485e-01
-3.553680015962102923e-01
-7.043744657947206278e-01
7.328748098647679399e-01
1.386021999726474718e-01
-1.251528129953128232e+00
3.910306685799572080e+00
-1.193891972096071230e+00
7.416841317191343874e-01
9.401928856762733488e-01
1.155840878402167871e+00
6.508448580326028354e-01
2.185954110550105689e-01
1.559096479105461786e+00
1.909672771139698799e-01
1.388252342260746230e+00
2.219825046957597525e+00
-2.304379234474660976e+00
-1.706583006006528347e+00
-1.518926950296952905e+00
-2.150431394585636813e+00
7.102201550152953402e-03
-9.209616158974653910e-01
7.427312213262760032e-01
-4.663558374896868974e-01
8.369618746759964756e-01
1.216530186451564743e+00
9.449790092498411287e-02
-1.942998457726529349e+00
6.889543287554955597e-01
-2.491121848449611598e+00
-5.596417307986532030e-01
1.345609829724678574e+00
-4.232516295893576919e-01
-2.452350342494018065e+00
-1.747040359266150533e+00
7.238049799637579218e-01
-9.733336220198407496e-01
9.938584634092584302e-02
1.963858982272068676e+00
-1.529228124711496051e+00
1.054790387272484420e+00
-5.960278259230750164e-01
-1.037242832457220543e-01
-1.002814003006700094e+00
-6.566138032304540406e-01
-1.484222887168426652e+00
1.549213434257845634e-02
-1.663399405912514006e-01
-2.809046891771072030e-02
1.290177070941451731e+00
-1.290406068880036949e+00
2.236879503076574238e+00
1.197714033363824537e+00
-2.126185867386636563e-01
2.065106359734051988e+00
2.435766995725986206e+00
2.955125746059185099e-01
4.772898845860350514e-01
-2.248303631883389997e+00
-4.771547289726446595e-01
9.812453989354067430e-01
7.909058743846100192e-01
-7.977437847403771043e-01
-4.575021022234461165e-01
-8.669454550091187928e-01
4.143912419848891360e-01
-6.852965307265694861e-01
1.065648921743715949e-01
-5.003965771653647643e+00
-2.006672438214207155e+00
-9.283657874026208789e-01
-8.667693161546957681e-01
1.682278283804318875e+00
-4.809925546133374752e+00
1.081028807078626697e+00
-4.243336453978461265e-01
-9.454937828734959471e-01
2.907454735464590212e-01
6.245922711653082438e-01
2.680899008319627352e+00
-2.344912638074969635e-02
-1.907931894883935886e+00
-4.201332431098101505e-01
5.197819219290367165e-01
-8.237152355709437268e-01
1.524459936575086827e+00
-9.721556489195049000e-01
1.044276754803098672e+00
-1.939956611633257832e+00
-1.468998013695531180e+00
-5.981437600926801101e-01
-1.785799551640341098e+00
7.000152885283631443e-01
1.664123010377320799e+00
5.683128041302795141e-01
-5.045207532402318229e-01
-2.997399958494999517e+00
2.702284225940195239e-01
8.915036591802191768e-02
-2.785144932020128250e-01
-3.855920062722497210e+00
1.013350832403623780e+00
1.089865150206188238e+00
1.572120429721194146e+00
-1.181915847606438696e-01
6.525583103477122782e-02
-8.303767384726351564e-01
-8.333782376756445620e-01
-1.039067464626463488e+00
-2.792040924982087002e+00
-1.440992186073746684e+00
2.625481294465335513e-01
8.814452299526490120e-02
-2.339753872300978532e+00
3.007419332579598592e+00
3.459782177950648796e-01
1.391509893613823046e+00
1.717545385198846752e-01
5.597533778875696253e-01
1.353447324513847028e-02
1.559869753084770050e+00
-1.177021778346845737e+00
1.697993721991566396e+00
-8.713657411430218991e-01
6.754549124238503621e-01
1.619149269180018558e-01
7.614614161399509307e+00
-2.989804947735861251e-01
-1.802713048693974640e-01
6.000286348839488637e-01
-2.107713407360070068e-01
1.077468050111320741e+00
-3.880326881909008929e-02
-1.000047338087050042e+00
1.877795052870739445e+00
-8.495648440402491230e-01
-5.206686920120007223e-01
-1.034826091774484480e+00
2.457710024214379452e+00
-3.552471313029627265e+00
-1.293231305150580379e+00
-2.507911151764696811e-02
-8.827394887700070747e-01
-3.641070687863435795e-01
-1.087992994975506944e+00
-1.158145092715071156e+00
-9.379850201995321157e-02
-3.353778511814700547e+00
-5.936204540544487429e-01
1.253295633874664250e-01
1.370318763074676927e+00
3.401799757307890637e-01
1.751949853795232492e+00
-1.224707437930093290e+00
2.182876999434359977e+00
-1.223907682813608622e-01
-2.597185274951792966e+00
-1.197674931324714809e+00
-3.796595799933703552e-01
-7.125966609462011103e-01
-1.898601979789190430e+00
4.463778196515692520e-01
-1.226587541795686187e+00
