-1.603643466512926219e+00
-3.032866924898088845e-01
2.847643358729627039e+00
-1.026428754082573391e+00
5.127264788477636337e+00
-5.768623420844118499e+00
3.382296473471329001e-01
-1.378292064001059192e+00
-2.637623345777610595e+00
1.579482487107176869e+00
-6.825513092010970784e-01
-2.286507868704675595e+00
1.322294074365956584e+00
3.815634330988997291e-01
-8.454931438419620582e-01
4.204585154795756452e+00
-2.605885207901602385e+00
-2.654234227436396143e-01
1.313843368697188208e+00
9.642429287945679661e-01
2.157131129520477586e+00
5.200378067927504677e-01
8.285280349046020287e-01
-8.586406470773102484e-01
1.116528115400073018e+00
2.991668797904249999e+00
-4.633936547515116189e+00
-1.590676037228335726e+00
-2.472664748379579613e+00
-3.452963528220420297e+00
6.297219608170107064e-01
-2.979027724938144495e+00
1.053212123538834977e+00
9.769959975943478536e-01
1.388822814517563398e+00
2.025503581879767978e+00
-7.197698542138222244e-01
-3.104208947254847750e+00
5.013043679536628439e-01
-2.561088505925830816e+00
-2.418982963276670173e-01
3.131664596715275639e-01
-5.943778247647729662e-01
-3.748538387007668504e+00
-3.809291446791212010e+00
1.193638102916763089e+00
-2.589742340572217749e+00
-2.049427787532311918e-01
3.014190845892790183e+00
-2.322313681139894115e+00
1.358573426999422962e+00
9.659141698313056246e-01
4.805423346630921522e-02
-1.776456632569427985e+00
-4.611162330331908255e-01
-6.229936940557079250e-01
3.430418836387625348e-01
-6.871207102657048704e-01
-1.144953897772061024e+00
2.992708180558230957e+00
-1.690459551503556979e+00
3.453520623284997981e+00
9.218823676073135687e-01
-3.995037608402276508e-01
1.605718530186984738e+00
3.858360474795698103e+00
3.957876735629330955e-01
-1.766649885309199419e-01
-2.635110641937454368e+00
9.303670603954439233e-02
2.574654745708047532e+00
1.869621679103025347e+00
-1.159688666774795873e+00
-1.092119396435892176e-01
-2.098498980915430856e-01
1.628313408682190211e+00
1.183679070524736865e-01
2.210337591006350522e-02
-6.812454463427265239e+00
-2.652274294937232657e+00
-1.834996067125898467e+00
-3.082331180105919444e-01
3.064845804690867759e+00
-1.150653445978589140e+01
-2.808431486927595033e-01
-2.282876883409603597e-01
-1.961589054813200672e+00
9.960871920226677112e-01
2.133903039085417674e+00
4.607406102037210793e+00
1.798635768043549632e+00
-2.095321630635529786e+00
-4.733815645607404310e-01
2.116564160896105218e+00
-7.687859314917671050e-01
2.900472600195568518e+00
-1.031380369265211261e+00
-3.221965616753363904e-03
-2.888517211815415653e+00
-4.327604315435975124e+00
3.748723844119334903e-01
-3.163779988438249813e+00
6.605996967701943667e-02
1.461443064711895889e+00
9.211444609649577231e-02
-2.726162048861646703e-01
-2.542827913045858867e+00
2.290226101973180661e-01
7.883988437360902601e-01
-2.111997862055067232e-01
-6.551314967107786380e+00
2.591251267256713398e+00
2.041364644966981778e+00
1.036778058783770939e+00
1.376313529213133435e+00
3.829376313165875900e-01
-1.075640940177025051e+00
-5.791663541174650875e-01
-8.102565361106180974e-01
-4.481116554109012995e+00
-1.279304827392522048e+00
-4.337266487789610547e-01
8.244300378006008678e-02
-2.135391511277019205e+00
4.184687050297988264e+00
3.580343558507206314e+00
9.776096135122847031e-01
-4.750758107183095102e-01
-1.301415595406750780e-01
5.352318102553370593e-01
3.492214144706223600e+00
-3.145248804951410460e+00
3.180053632990587520e+00
-9.446510982113069943e-01
4.504166339339721881e-01
2.023682932769227616e+00
1.150598066336197611e+01
-1.512971181697255529e+00
-1.434466726130390946e+00
1.425218188813977882e+00
9.182829975620783181e-01
1.585797514293834087e+00
8.067658335669926073e-01
1.418451629629094990e-01
3.398197671481352433e+00
-9.934036966042560923e-01
-1.630629202009346690e+00
-5.260580849733175191e-01
4.710604006210763472e+00
-5.164530843956692152e+00
-1.603781734101445977e-01
-6.288848228112180472e-01
-1.811938672773165004e+00
5.613078696513835730e-01
-1.387152846164146025e+00
-1.225118772034461179e+00
9.757560252882164775e-01
-5.705567992103508956e+00
-8.870524802152814914e-01
1.039318721951966396e+00
1.501327604842488173e+00
1.856164251681092114e+00
1.676633386755490562e+00
-1.454635942735844845e+00
2.628895016380891736e+00
8.811514746108080054e-01
-5.188840251198537423e+00
-2.450218011973418264e+00
-1.407120222391180953e+00
-6.506976339508474538e-02
-2.768298785132476958e+00
6.639049802556646895e-01
-7.427050317200993845e-01
